svm_type c_svc
kernel_type linear
nr_class 31
total_sv 293
rho 0.19948796185894466 0.7916041577329882 -0.2717091413022002 0.7151234545455968 -0.3066673251531801 0.23251484397444847 0.43451117365547604 0.5734990994373855 -0.2750863355347782 -0.3216666870455354 -0.7341780285462295 -0.02705992303406034 -0.10559610375238572 -0.6323137605182001 -0.40688627496137453 -0.09197916148505599 0.2651114290500534 -0.6522823794075263 0.7628288827849186 -0.4387563457606957 0.5769237638236749 -0.015896932292212562 0.4950581230587055 0.3178110851939047 0.7938220566940787 -0.06144447073874285 0.6898991930055176 -0.6567227203700661 0.6614513077441879 0.8386375272297637 0.6667023060953752 -0.41329075275126564 0.8061577131317984 -0.2901443889193685 0.3172634135610293 0.5187008378695954 -0.03134788292323268 -0.07928062756356813 -0.5299822817965949 -0.9184995525367443 -0.21637228227702188 -0.2145222933985168 -0.5278848201901115 -0.46585881822324704 -0.6173599469786615 -0.5733563509044847 -0.6604855530818221 0.4388469815771549 -0.5103920122524842 0.19999721293670125 -0.19375642989138492 -0.054422545595643475 0.16612491634247484 0.2045259825801472 -0.7152304194819891 0.15080523283176409 -1.096588500727688 0.18062051694105344 0.7087494531949963 -0.6860134829354173 -0.4046586361086565 -0.58511246630721 -0.2133210253441897 -0.066870342558712 -0.31330772829544096 -0.5878867521714056 -0.8004928755434393 -1.041874482325466 -0.7285343240868621 -0.8285295702645741 -0.861616079059249 -0.6059300828396507 -0.2506219327436254 -0.41669563164895007 -1.0350241755785612 -0.15352828270335378 -0.7698498235483507 -0.4276159621360661 -0.9196526864257627 -0.5612769811275236 -0.19873999896383146 -0.31109971053667634 -0.758358799517139 -0.11666068282062732 -1.0090947603633647 -0.20958870388546427 0.1788607929081332 0.48432665831145993 -0.02887353365015041 0.6552928366078313 0.5559009831118227 0.28078861715678133 0.13009575744243165 -0.2962489767140342 -0.6598537064264389 -0.10497316137032939 0.07552033234277883 -0.2371144137141404 -0.22518928842084007 0.26232287138288873 0.042966913269224805 -0.1731587147588138 0.4427408458919227 -0.26617864658222895 0.27256468206295736 0.14622839882349553 0.33735145797388605 0.30599123847076276 0.43855278216884325 -0.1596538041821923 0.44437991221039375 -0.30516649980409355 0.4079090128676837 0.6393632993559201 -0.578161011259458 -0.20678997768695562 0.16299640086754547 -0.5237006520052773 -0.6194015104601753 -0.8182117606560486 -0.8983873653200536 -0.6779386965871027 -0.3854992446597907 -0.6367582928692127 -0.6553171042180804 -0.6101927792688626 -0.6597044276945414 -1.0562130495486013 -0.06050277451909504 -0.9360809141738249 -0.3108447619858608 -0.8498509698028216 -0.16635590324018076 -0.09433333098341865 -0.26403317236102813 -0.8675473244133918 -0.3505536014296496 -0.8924795404930204 -0.026845398016948904 0.27988592465050544 0.48698324889964406 0.81467328149172 0.47028515733428705 0.1879436465574924 -0.0387159584579108 -0.6824150259157317 0.18756011903273306 0.2594565574008236 -0.296673210121919 -0.054005532610391684 0.20836632236648872 0.23647160207342433 -0.1308477512047157 0.6507886454522859 -0.1970004022693505 0.41732945298157453 0.18839186469819488 0.3338461737053372 0.38673742636626507 0.7102463133878306 -0.0046005594673390795 0.5145899080904579 -0.24793831284420262 0.5162642598834314 0.8671888779433155 0.033647891748353004 0.1680325597870703 -0.3269849922916683 -0.46242501896156457 -0.8430192793559946 -0.24174441334433389 -0.20600990666629887 -0.5591510063299043 -0.468789733735894 -0.4391837150579781 -0.25063777101048096 -0.5157462810789436 0.21529973199667563 -0.7251008456956859 -0.3164787454338573 -0.36495564172364314 -0.019969323933963647 -0.08015021678372843 0.17923304671375295 -0.6165755846378814 0.07513900946392495 -0.7601586376054902 0.04342586567475809 0.5424884903028616 0.08695986942966291 -0.5007078249466508 -1.2224970023808734 -0.8946527759344411 -0.7520028059678523 -0.5622495140585961 -0.6643021468349283 -1.1128755988913825 -0.4590769548129253 -0.38676412853884146 -0.8194054185640826 0.26675705425188906 -0.8600357818894383 -0.2227857833898641 -0.4557900320266908 -0.059767631464943384 0.14255973503167904 0.05069968338794465 -0.9688553182466604 0.3702223959498118 -1.3416636137201579 0.22414599193687837 0.46537558205315943 -0.5113939080472164 -0.5726907019001736 -1.0017832587684303 -0.45400123482332677 -0.4059630468895661 -0.7572253836391105 -0.5941872253248375 -0.28649866944646196 -0.6618694661437536 -1.17043454040761 0.39915578132667395 -0.6682295564014554 0.07503928825452257 -0.45333209006686065 -0.5635778664294898 0.019468394495361797 0.3009149820325071 -0.6973981990446716 0.18634629358158583 -1.0923432152831054 -0.03469697302295635 0.8005002136449376 -0.35007196893788234 -0.914852774521694 0.12737126825057876 -0.040020110518182994 -0.4510289567106166 -0.17292856038303625 0.08343954093117942 0.021814967307657914 -0.40470704402853974 0.848415640116995 -0.4397635728050109 0.33467788508690255 0.04980857937881628 0.5059740610289258 0.4850705445645432 0.975149136636389 -0.1553831176266339 0.7977867320613703 -0.4534151077239644 0.769858636422525 0.9183206315735726 -0.6193621159766634 0.2021627949609417 0.12278866773855067 -0.1857436199641485 -0.1538527230274793 0.33245541101563625 0.4066721122815158 -0.19211555519573237 0.851669936951992 -0.19625696626444944 1.2348346605589544 0.23826281584447231 0.4862578485854853 0.5603671089900475 0.895048317669564 -0.09607455680199108 0.7344190922532402 -0.26416988878329417 0.5500982105369268 0.92321572987459 0.8205017679571284 0.7896210135043579 0.5114379901479916 0.5083634461821793 0.6997660443738112 0.7048429790925614 0.6380444815967046 0.9462372462406672 0.5317219517924203 0.8539592281102686 0.8108305668133281 1.0087536474404164 0.729662532337263 1.0459648148652056 0.6490985058605743 0.857420675715002 0.5067151097625072 0.842071564012466 1.1331733124468004 0.20800062709704373 -0.5728659082501281 -0.25409120364835086 -0.03215568115396702 0.09176000229320869 -0.5354832332816865 0.6677003138421361 -0.37590978385601015 0.41409437124681686 -0.00215591806223319 0.27616726504462336 0.34188294798936003 0.5537044520368241 -0.09158343593271266 0.4299014853106329 -0.6433491127603403 0.38353568671645133 0.9971523651601115 -0.7149248369040223 -0.35081753661930076 -0.09753409922368525 -0.19571151758636032 -0.53573664471236 0.2321790863872502 -0.5430035639482981 0.2365811113758332 -0.1468668592388275 0.9124123033567966 0.10193369078420854 0.6446846675115899 -0.2752429093204601 0.43606900142504895 -0.673797663392482 0.30036122470873955 0.8110407094710522 0.12058351001036104 0.5230202570023201 0.46561256544920343 -0.07661863087259574 0.7823055303349084 -0.07626134847506683 0.5033963792934922 0.4062570137177165 0.6704058185349159 0.6290929003857766 0.85676806146328 0.16504479578752704 0.9783940125672331 0.15033616267676034 0.8391299718852253 1.1122461098519 0.37146424588961585 0.47994615522533196 -0.010834208733715956 0.8435495160536188 -0.09897739179148218 0.7511939297851674 0.2715762277823671 0.5346855327563189 0.4718844983517119 0.8267347281384326 0.0774897323124098 0.6014464381046468 -0.044692112953632956 0.5699327155383103 0.9901245233701387 -0.1261054949986164 -0.4632552115836595 0.6145147659552859 -0.5738091080785868 0.3635451209928248 0.15468084479957464 0.194832737307731 0.3126985142179362 0.6959171466635111 -0.5415433521033991 0.468615662165555 -0.5694515541333257 0.27167005599518557 0.6883813060143856 -0.31839603118739196 0.7495375511961113 -1.117843959972921 0.6500301647699143 0.08589102261100452 0.6758736093121561 0.35066473793354114 0.7563282769189136 -0.6742818005533505 0.3973055904000462 -1.1393480278035892 0.41038209568557305 0.9659867812934447 1.0064581304033193 -0.13927749604505582 0.7725174140412523 0.3535782649820597 0.8966399931405947 0.7249687198013564 1.1931053513144179 0.1802156590204784 1.0905946971743352 0.05763234137317395 0.8588603345952599 1.2638924466535504 -0.7498681281076041 -0.12637526457800496 -0.4938707758756495 -0.6016721045232115 -0.1919222844162028 0.05892402146559374 -0.6202422902413486 -0.3501236874493423 -1.1180087598960635 -0.36718119674783317 0.4760751962325558 0.8317839970265841 0.3557518341076584 0.8546496586039709 0.5495866314217469 0.7890197234225594 0.4052250038497469 0.7225972591104007 0.1884179498277407 0.6053384068692045 0.9237792352467061 -0.4106368928731665 -0.12850449076168444 0.10403463978245539 0.08121335004203585 -0.9363847666486367 0.1548825794914053 -1.1115986915289817 0.03893103711879459 0.3983651115942767 0.5456184476189327 0.22216811520582624 0.4022379155442931 -0.3136650026290095 0.3968019268907238 -0.6325347948080461 0.3258944432024527 0.8210435761810378 0.23269722497849177 0.3364673551824519 -0.7923588157710924 0.7597683535852303 -1.0310774287249047 0.13679559295463664 1.019289169982102 0.24075807708690608 -0.4226573055043807 0.039523608344440624 -0.7948529750754098 0.044005690791893044 0.4286648558593302 -1.0083060245446425 -0.3703480450184379 -0.9653893870452718 -0.009049350540080582 0.2738693918540467 0.7141027177728249 -0.45425540873387754 0.6044758862105314 0.8678517136433223 -1.0236470008883751 -0.14395998184159012 0.5495533335513013 0.9190377425124192 1.2105900486132444 0.541404706192724
label 11 12 13 14 15 16 17 18 21 23 24 25 26 27 2 28 3 29 4 30 5 31 6 32 7 33 8 34 9 35 36
nr_sv 10 11 17 4 10 3 9 12 14 10 7 1 7 17 4 4 10 12 7 8 6 14 6 17 6 20 9 12 9 8 9
SV
0.0426981647310053 0.03004968463303329 0.03394128806317582 0.04013310877254103 0.047402651264015466 0.05043533808462573 0.05729956322913713 0.04005673439917144 0.045946749261847046 0.034441951003327816 0.0029299499376827793 0.03726511526169163 0.04145392815420021 0.03047031674833536 0.021653678181143162 0.03751051531935907 0.02673223508206201 0.03228989206136203 0.027005804428420446 0.016198090656239058 0.03910048933630289 0.033831915604904644 0.03695655058090298 0.021052966440192018 0.08807851459786584 0.0400277444932387 0.03953088837731697 0.0359978924269501 0.04551607623415089 0.0390984307225128 1:0.0 2:0.0 3:0.0 4:0.0 5:0.0 6:0.0 7:0.0 8:0.0 9:0.0 10:0.0 11:0.0 12:0.0 13:0.0 14:0.0 15:0.0 16:0.0 17:0.0 18:0.0 19:0.0 20:0.0 21:0.0 22:0.0 23:0.0 24:0.0 25:0.0 26:0.0 27:0.0 28:0.0 29:0.0 30:0.0 31:0.0 32:0.0 33:0.0 34:0.0 35:0.0 36:0.0 37:0.0 38:0.0 39:0.0 40:0.0 41:1.0 42:1.0 43:0.0 44:0.0 45:0.0 46:0.0 47:0.0 48:0.0 49:0.0 50:0.0 51:0.0 52:0.0 53:0.0 54:0.0 55:1.0 56:1.0 57:0.0 58:1.0 59:0.0 60:0.0 61:0.0 62:0.0 63:0.0 64:0.0 65:0.0 66:0.0 67:0.0 68:0.0 69:0.0 70:1.0 71:1.0 72:0.0 73:0.0 74:1.0 75:0.0 76:0.0 77:0.0 78:0.0 79:0.0 80:0.0 81:1.0 82:0.0 83:0.0 84:0.0 85:0.0 86:1.0 87:1.0 88:0.0 89:0.0 90:1.0 91:1.0 92:1.0 93:1.0 94:0.0 95:0.0 96:0.0 97:0.0 98:0.0 99:0.0 100:1.0 101:1.0 102:0.0 103:0.0 104:0.0 105:0.0 106:1.0 107:0.0 108:1.0 109:1.0 110:1.0 111:0.0 112:0.0 113:0.0 114:0.0 115:1.0 116:1.0 117:1.0 118:1.0 119:0.0 120:0.0 121:0.0 122:1.0 123:0.0 124:0.0 125:1.0 126:1.0 127:0.0 128:0.0 129:0.0 130:0.0 131:0.0 132:0.0 133:0.0 134:0.0 135:0.0 136:0.0 137:1.0 138:1.0 139:0.0 140:0.0 141:0.0 142:1.0 143:1.0 144:0.0 145:0.0 146:0.0 147:0.0 148:0.0 149:0.0 150:0.0 151:0.0 152:0.0 153:0.0 154:1.0 155:0.0 156:0.0 157:0.0 158:1.0 159:1.0 160:0.0 161:0.0 162:0.0 163:0.0 164:0.0 165:0.0 166:0.0 167:0.0 168:0.0 169:0.0 170:1.0 171:0.0 172:0.0 173:0.0 174:0.0 175:0.0 176:0.0 177:0.0 178:0.0 179:0.0 180:0.0 181:1.0 182:0.0 183:0.0 184:0.0 185:1.0 186:1.0 187:0.0 188:0.0 189:0.0 190:0.0 191:0.0 192:0.0 193:0.0 194:0.0 195:0.0 196:0.0 197:1.0 198:1.0 199:0.0 200:0.0 201:1.0 202:1.0 203:0.0 204:0.0 205:0.0 206:0.0 207:0.0 208:0.0 209:0.0 210:0.0 211:0.0 212:0.0 213:0.0 214:0.0 215:0.0 216:0.0 217:0.0 218:0.0 219:0.0 220:0.0 221:0.0 222:0.0 223:0.0 224:0.0 225:0.0 226:0.0 227:0.0 228:0.0 229:0.0 230:0.0 231:0.0 232:0.0 233:0.0 234:0.0 235:0.0 236:0.0 237:0.0 238:0.0 239:0.0 240:0.0 241:0.0 242:0.0 243:0.0 244:0.0 245:0.0 246:0.0 247:0.0 248:0.0 249:0.0 250:0.0 251:0.0 252:0.0 253:0.0 254:0.0 255:0.0 256:0.0 
0.031737069850976296 0.02235824654822597 0.01873023434935031 0.02911435834786527 0.017090283279111745 0.04643804095900636 0.045558346465019085 0.02476244543371087 0.041356306265730794 0.036032238984807924 0.007851835751503817 0.03183676499394509 0.015281682629640109 0.02633117735439603 0.028559858933958383 0.02626523333085914 0.028690126283816605 0.029818205651104032 0.04510272153654683 0.016691985339028104 0.021698219411275945 0.029131630478964762 0.021906120543274493 0.0170356017122363 0.06154468494244007 0.019792991617513887 0.04023085381236326 0.02757583399139821 0.029066465481326312 0.029932786910812748 1:0.0 2:0.0 3:0.0 4:0.0 5:0.0 6:0.0 7:0.0 8:0.0 9:0.0 10:0.0 11:0.0 12:0.0 13:0.0 14:0.0 15:1.0 16:0.0 17:0.0 18:0.0 19:0.0 20:0.0 21:0.0 22:0.0 23:0.0 24:0.0 25:0.0 26:0.0 27:0.0 28:0.0 29:1.0 30:1.0 31:1.0 32:0.0 33:0.0 34:0.0 35:0.0 36:0.0 37:0.0 38:0.0 39:0.0 40:0.0 41:0.0 42:0.0 43:0.0 44:1.0 45:1.0 46:0.0 47:1.0 48:0.0 49:0.0 50:0.0 51:0.0 52:0.0 53:1.0 54:1.0 55:1.0 56:1.0 57:0.0 58:0.0 59:1.0 60:1.0 61:0.0 62:0.0 63:1.0 64:0.0 65:0.0 66:0.0 67:0.0 68:1.0 69:1.0 70:1.0 71:1.0 72:1.0 73:1.0 74:1.0 75:1.0 76:0.0 77:0.0 78:0.0 79:1.0 80:0.0 81:0.0 82:0.0 83:0.0 84:1.0 85:1.0 86:0.0 87:1.0 88:1.0 89:1.0 90:1.0 91:1.0 92:0.0 93:0.0 94:0.0 95:1.0 96:0.0 97:0.0 98:0.0 99:0.0 100:0.0 101:0.0 102:0.0 103:0.0 104:1.0 105:1.0 106:1.0 107:1.0 108:0.0 109:0.0 110:1.0 111:1.0 112:0.0 113:0.0 114:0.0 115:0.0 116:0.0 117:0.0 118:0.0 119:1.0 120:1.0 121:0.0 122:1.0 123:1.0 124:0.0 125:0.0 126:0.0 127:0.0 128:0.0 129:0.0 130:0.0 131:0.0 132:0.0 133:0.0 134:1.0 135:1.0 136:0.0 137:0.0 138:0.0 139:1.0 140:1.0 141:0.0 142:0.0 143:0.0 144:0.0 145:0.0 146:0.0 147:0.0 148:0.0 149:0.0 150:0.0 151:0.0 152:0.0 153:0.0 154:0.0 155:1.0 156:1.0 157:1.0 158:0.0 159:0.0 160:0.0 161:0.0 162:0.0 163:0.0 164:0.0 165:0.0 166:0.0 167:0.0 168:0.0 169:0.0 170:0.0 171:0.0 172:0.0 173:1.0 174:0.0 175:0.0 176:0.0 177:0.0 178:0.0 179:0.0 180:0.0 181:0.0 182:1.0 183:0.0 184:0.0 185:0.0 186:0.0 187:0.0 188:0.0 189:0.0 190:0.0 191:0.0 192:0.0 193:0.0 194:0.0 195:0.0 196:0.0 197:0.0 198:1.0 199:1.0 200:0.0 201:0.0 202:0.0 203:0.0 204:0.0 205:0.0 206:0.0 207:0.0 208:0.0 209:0.0 210:0.0 211:0.0 212:0.0 213:0.0 214:0.0 215:0.0 216:0.0 217:0.0 218:0.0 219:0.0 220:0.0 221:0.0 222:0.0 223:0.0 224:0.0 225:0.0 226:0.0 227:0.0 228:0.0 229:0.0 230:0.0 231:0.0 232:0.0 233:0.0 234:0.0 235:0.0 236:0.0 237:0.0 238:0.0 239:0.0 240:0.0 241:1.0 242:0.0 243:0.0 244:0.0 245:0.0 246:0.0 247:0.0 248:0.0 249:0.0 250:0.0 251:0.0 252:0.0 253:0.0 254:0.0 255:0.0 256:0.0 
0.03758668636171693 0.04400113518728354 0.021194936030345904 0.041267167115840865 0.02011783770729114 0.018668913906803523 0.05343904970498577 0.049761897553192665 0.025642158512447298 0.027796916888437474 0.004121735352512126 0.03822652361199016 0.026580027232968133 0.02220001108255897 0.018384469004879674 0.0403582520717946 0.04259242716728008 0.04198256574175451 0.03130906190551955 0.024752245589233328 0.03817083032491156 0.03656420953255284 0.048339716298693436 0.023469536275614423 0.05109498658441046 0.042643552089727636 0.025077832532777136 0.035983516429972495 0.042879637458340766 0.03716931280924861 1:0.0 2:0.0 3:0.0 4:0.0 5:0.0 6:0.0 7:0.0 8:0.0 9:0.0 10:0.0 11:1.0 12:1.0 13:0.0 14:0.0 15:0.0 16:0.0 17:0.0 18:0.0 19:0.0 20:0.0 21:0.0 22:0.0 23:0.0 24:0.0 25:0.0 26:0.0 27:0.0 28:0.0 29:0.0 30:0.0 31:1.0 32:0.0 33:0.0 34:0.0 35:0.0 36:0.0 37:0.0 38:0.0 39:0.0 40:0.0 41:0.0 42:0.0 43:0.0 44:0.0 45:0.0 46:0.0 47:0.0 48:0.0 49:0.0 50:0.0 51:0.0 52:0.0 53:0.0 54:0.0 55:0.0 56:0.0 57:0.0 58:0.0 59:0.0 60:0.0 61:0.0 62:1.0 63:1.0 64:0.0 65:0.0 66:0.0 67:0.0 68:1.0 69:1.0 70:1.0 71:0.0 72:0.0 73:0.0 74:0.0 75:0.0 76:0.0 77:1.0 78:1.0 79:0.0 80:0.0 81:0.0 82:0.0 83:0.0 84:1.0 85:1.0 86:1.0 87:1.0 88:0.0 89:0.0 90:0.0 91:0.0 92:0.0 93:1.0 94:0.0 95:0.0 96:0.0 97:0.0 98:0.0 99:0.0 100:1.0 101:0.0 102:0.0 103:1.0 104:1.0 105:0.0 106:0.0 107:1.0 108:1.0 109:0.0 110:0.0 111:0.0 112:0.0 113:0.0 114:0.0 115:0.0 116:0.0 117:0.0 118:0.0 119:0.0 120:1.0 121:1.0 122:0.0 123:1.0 124:1.0 125:0.0 126:0.0 127:0.0 128:0.0 129:1.0 130:1.0 131:0.0 132:0.0 133:1.0 134:0.0 135:0.0 136:0.0 137:0.0 138:1.0 139:1.0 140:0.0 141:0.0 142:0.0 143:0.0 144:0.0 145:0.0 146:0.0 147:0.0 148:0.0 149:1.0 150:0.0 151:0.0 152:0.0 153:1.0 154:1.0 155:1.0 156:1.0 157:0.0 158:0.0 159:0.0 160:0.0 161:1.0 162:0.0 163:0.0 164:0.0 165:1.0 166:1.0 167:1.0 168:1.0 169:1.0 170:0.0 171:0.0 172:0.0 173:1.0 174:1.0 175:0.0 176:0.0 177:1.0 178:0.0 179:0.0 180:0.0 181:1.0 182:1.0 183:1.0 184:0.0 185:0.0 186:0.0 187:0.0 188:0.0 189:1.0 190:1.0 191:0.0 192:0.0 193:0.0 194:0.0 195:0.0 196:0.0 197:1.0 198:1.0 199:0.0 200:0.0 201:0.0 202:0.0 203:0.0 204:0.0 205:0.0 206:0.0 207:0.0 208:0.0 209:0.0 210:0.0 211:0.0 212:0.0 213:1.0 214:1.0 215:0.0 216:0.0 217:0.0 218:0.0 219:0.0 220:0.0 221:0.0 222:0.0 223:0.0 224:0.0 225:0.0 226:0.0 227:0.0 228:0.0 229:1.0 230:1.0 231:1.0 232:0.0 233:0.0 234:0.0 235:0.0 236:0.0 237:0.0 238:0.0 239:0.0 240:0.0 241:0.0 242:0.0 243:0.0 244:0.0 245:0.0 246:1.0 247:0.0 248:0.0 249:0.0 250:0.0 251:0.0 252:0.0 253:0.0 254:0.0 255:0.0 256:0.0 
0.010743496763240103 0.006545078131055509 0.008970790395653952 0.01713938361724305 0.003947737804917631 0.00910705176236864 0.013031802123060963 0.011217989337011689 0.017108720242454536 0.022819653661815965 0.0019036111305585628 0.015302038405274391 0.013420990680819762 5.532569634520485E-4 0.011984246005882838 0.013831511695228973 0.02316308887801191 0.007837384435598076 0.019997168399233368 0.016972642115532087 0.009764530100620719 0.005365219376104116 0.014613453554078086 0.002404402905931699 0.029463822501536875 0.014271530369986223 0.01877709034132825 0.019151326884513903 0.0 0.007643570102107318 1:0.0 2:0.0 3:0.0 4:1.0 5:1.0 6:1.0 7:1.0 8:1.0 9:1.0 10:1.0 11:1.0 12:0.0 13:0.0 14:0.0 15:0.0 16:0.0 17:1.0 18:1.0 19:1.0 20:0.0 21:0.0 22:0.0 23:0.0 24:0.0 25:1.0 26:1.0 27:1.0 28:0.0 29:0.0 30:0.0 31:0.0 32:0.0 33:1.0 34:1.0 35:1.0 36:0.0 37:0.0 38:0.0 39:0.0 40:0.0 41:1.0 42:1.0 43:1.0 44:0.0 45:0.0 46:0.0 47:0.0 48:0.0 49:1.0 50:1.0 51:1.0 52:0.0 53:0.0 54:0.0 55:0.0 56:0.0 57:0.0 58:1.0 59:1.0 60:1.0 61:0.0 62:0.0 63:0.0 64:0.0 65:1.0 66:0.0 67:0.0 68:0.0 69:0.0 70:0.0 71:0.0 72:1.0 73:1.0 74:1.0 75:1.0 76:1.0 77:0.0 78:0.0 79:0.0 80:0.0 81:1.0 82:0.0 83:0.0 84:0.0 85:0.0 86:0.0 87:0.0 88:1.0 89:1.0 90:1.0 91:1.0 92:1.0 93:0.0 94:0.0 95:0.0 96:0.0 97:0.0 98:0.0 99:0.0 100:0.0 101:1.0 102:1.0 103:1.0 104:1.0 105:0.0 106:1.0 107:1.0 108:1.0 109:0.0 110:0.0 111:0.0 112:0.0 113:0.0 114:1.0 115:1.0 116:1.0 117:1.0 118:0.0 119:0.0 120:0.0 121:0.0 122:1.0 123:1.0 124:1.0 125:1.0 126:0.0 127:0.0 128:0.0 129:0.0 130:1.0 131:1.0 132:1.0 133:1.0 134:0.0 135:0.0 136:0.0 137:0.0 138:1.0 139:1.0 140:1.0 141:1.0 142:0.0 143:0.0 144:0.0 145:0.0 146:1.0 147:1.0 148:1.0 149:0.0 150:0.0 151:0.0 152:0.0 153:0.0 154:1.0 155:1.0 156:1.0 157:1.0 158:0.0 159:0.0 160:0.0 161:0.0 162:1.0 163:1.0 164:1.0 165:0.0 166:0.0 167:0.0 168:0.0 169:0.0 170:1.0 171:1.0 172:1.0 173:1.0 174:0.0 175:0.0 176:0.0 177:0.0 178:1.0 179:1.0 180:1.0 181:0.0 182:0.0 183:0.0 184:0.0 185:0.0 186:1.0 187:1.0 188:1.0 189:1.0 190:0.0 191:0.0 192:0.0 193:0.0 194:1.0 195:1.0 196:1.0 197:0.0 198:0.0 199:0.0 200:0.0 201:0.0 202:1.0 203:1.0 204:1.0 205:1.0 206:1.0 207:1.0 208:0.0 209:0.0 210:1.0 211:1.0 212:1.0 213:1.0 214:0.0 215:0.0 216:0.0 217:1.0 218:0.0 219:0.0 220:0.0 221:0.0 222:0.0 223:0.0 224:0.0 225:0.0 226:1.0 227:1.0 228:1.0 229:1.0 230:0.0 231:0.0 232:0.0 233:1.0 234:0.0 235:0.0 236:0.0 237:0.0 238:0.0 239:0.0 240:0.0 241:0.0 242:0.0 243:0.0 244:1.0 245:1.0 246:1.0 247:1.0 248:1.0 249:0.0 250:0.0 251:0.0 252:0.0 253:0.0 254:0.0 255:0.0 256:0.0 
0.017403922152715696 0.022795859115078778 0.006323070194078405 0.013204182965822833 0.006345261137911992 0.012090589130882099 0.025741746316259896 0.01874838033504517 0.012441552888289938 0.008302087874052861 3.829039276895299E-4 0.018951427838451523 0.015060843710011032 0.008725984760131287 0.025152010914275623 0.012408514523298048 0.024620617629751176 0.0255214223985238 0.03820814770036625 0.006153955506918933 0.019988568971230466 7.675661911069952E-4 0.016052921219106116 0.01688051847183236 0.007833563150650421 0.012158933141416037 0.02297908892073119 0.02511292011916042 0.04285055126028802 0.020410588633021153 1:0.0 2:0.0 3:0.0 4:0.0 5:0.0 6:1.0 7:1.0 8:1.0 9:1.0 10:1.0 11:0.0 12:0.0 13:0.0 14:0.0 15:0.0 16:0.0 17:0.0 18:0.0 19:0.0 20:0.0 21:0.0 22:0.0 23:0.0 24:0.0 25:0.0 26:0.0 27:1.0 28:1.0 29:1.0 30:1.0 31:0.0 32:0.0 33:0.0 34:0.0 35:0.0 36:0.0 37:0.0 38:0.0 39:0.0 40:0.0 41:0.0 42:0.0 43:0.0 44:1.0 45:1.0 46:1.0 47:0.0 48:0.0 49:0.0 50:1.0 51:1.0 52:1.0 53:1.0 54:1.0 55:1.0 56:1.0 57:1.0 58:0.0 59:0.0 60:1.0 61:1.0 62:1.0 63:0.0 64:0.0 65:1.0 66:1.0 67:0.0 68:0.0 69:0.0 70:0.0 71:0.0 72:0.0 73:1.0 74:1.0 75:1.0 76:1.0 77:1.0 78:1.0 79:0.0 80:0.0 81:1.0 82:1.0 83:0.0 84:0.0 85:0.0 86:0.0 87:0.0 88:0.0 89:0.0 90:0.0 91:1.0 92:1.0 93:1.0 94:0.0 95:0.0 96:0.0 97:0.0 98:1.0 99:1.0 100:1.0 101:1.0 102:1.0 103:1.0 104:1.0 105:1.0 106:1.0 107:0.0 108:0.0 109:0.0 110:0.0 111:0.0 112:0.0 113:0.0 114:0.0 115:1.0 116:1.0 117:1.0 118:1.0 119:1.0 120:0.0 121:1.0 122:1.0 123:0.0 124:0.0 125:0.0 126:0.0 127:0.0 128:0.0 129:0.0 130:0.0 131:0.0 132:0.0 133:0.0 134:0.0 135:0.0 136:0.0 137:1.0 138:1.0 139:1.0 140:1.0 141:1.0 142:0.0 143:0.0 144:0.0 145:0.0 146:0.0 147:0.0 148:0.0 149:0.0 150:0.0 151:0.0 152:0.0 153:0.0 154:1.0 155:1.0 156:1.0 157:1.0 158:0.0 159:0.0 160:0.0 161:0.0 162:0.0 163:0.0 164:0.0 165:0.0 166:0.0 167:0.0 168:0.0 169:0.0 170:0.0 171:1.0 172:1.0 173:1.0 174:0.0 175:0.0 176:0.0 177:0.0 178:0.0 179:0.0 180:0.0 181:0.0 182:0.0 183:0.0 184:0.0 185:0.0 186:0.0 187:1.0 188:1.0 189:1.0 190:0.0 191:0.0 192:0.0 193:0.0 194:0.0 195:0.0 196:0.0 197:0.0 198:0.0 199:0.0 200:0.0 201:0.0 202:0.0 203:0.0 204:1.0 205:1.0 206:0.0 207:0.0 208:0.0 209:0.0 210:0.0 211:0.0 212:0.0 213:0.0 214:0.0 215:0.0 216:0.0 217:0.0 218:0.0 219:0.0 220:0.0 221:0.0 222:1.0 223:1.0 224:0.0 225:0.0 226:0.0 227:0.0 228:0.0 229:0.0 230:0.0 231:0.0 232:0.0 233:0.0 234:0.0 235:0.0 236:0.0 237:0.0 238:0.0 239:1.0 240:0.0 241:0.0 242:0.0 243:0.0 244:0.0 245:0.0 246:0.0 247:0.0 248:0.0 249:0.0 250:0.0 251:0.0 252:0.0 253:0.0 254:0.0 255:0.0 256:0.0 
0.0 0.0 0.00989247685318642 0.0 0.0 0.00407977568063884 0.004107015925284255 0.0 0.0 0.0 0.004316466417775589 5.93034068095622E-4 0.008265935758392998 0.006971519182624873 0.0 0.014516197212798803 0.0040561829835453304 0.015825631685898393 0.0 0.0057731104785227385 0.015336981548056816 0.0030434855724258783 0.007067831970370893 0.0 0.011177964910333515 0.023090577762588698 0.0 0.0 0.0 0.0 1:0.0 2:0.0 3:0.0 4:0.0 5:0.0 6:0.0 7:0.0 8:0.0 9:0.0 10:0.0 11:0.0 12:0.0 13:0.0 14:0.0 15:1.0 16:0.0 17:0.0 18:0.0 19:0.0 20:0.0 21:0.0 22:0.0 23:0.0 24:0.0 25:0.0 26:0.0 27:0.0 28:0.0 29:1.0 30:1.0 31:0.0 32:0.0 33:0.0 34:0.0 35:0.0 36:0.0 37:0.0 38:0.0 39:0.0 40:0.0 41:0.0 42:0.0 43:0.0 44:1.0 45:0.0 46:0.0 47:0.0 48:0.0 49:0.0 50:0.0 51:0.0 52:0.0 53:0.0 54:0.0 55:0.0 56:0.0 57:0.0 58:0.0 59:0.0 60:1.0 61:1.0 62:1.0 63:0.0 64:0.0 65:0.0 66:0.0 67:0.0 68:0.0 69:1.0 70:1.0 71:1.0 72:1.0 73:1.0 74:1.0 75:1.0 76:1.0 77:0.0 78:0.0 79:0.0 80:0.0 81:0.0 82:0.0 83:1.0 84:1.0 85:1.0 86:1.0 87:1.0 88:1.0 89:1.0 90:1.0 91:1.0 92:0.0 93:0.0 94:0.0 95:0.0 96:0.0 97:0.0 98:1.0 99:1.0 100:1.0 101:1.0 102:0.0 103:0.0 104:0.0 105:0.0 106:1.0 107:1.0 108:1.0 109:0.0 110:0.0 111:0.0 112:0.0 113:1.0 114:1.0 115:0.0 116:0.0 117:0.0 118:0.0 119:0.0 120:0.0 121:0.0 122:1.0 123:1.0 124:1.0 125:0.0 126:0.0 127:0.0 128:0.0 129:1.0 130:1.0 131:0.0 132:0.0 133:0.0 134:0.0 135:1.0 136:1.0 137:1.0 138:1.0 139:1.0 140:1.0 141:1.0 142:1.0 143:1.0 144:0.0 145:0.0 146:0.0 147:0.0 148:0.0 149:1.0 150:1.0 151:1.0 152:1.0 153:1.0 154:0.0 155:0.0 156:1.0 157:1.0 158:1.0 159:1.0 160:0.0 161:0.0 162:0.0 163:0.0 164:0.0 165:1.0 166:1.0 167:0.0 168:0.0 169:0.0 170:0.0 171:0.0 172:1.0 173:1.0 174:1.0 175:1.0 176:0.0 177:0.0 178:0.0 179:1.0 180:1.0 181:1.0 182:1.0 183:0.0 184:0.0 185:0.0 186:0.0 187:0.0 188:1.0 189:1.0 190:1.0 191:1.0 192:0.0 193:0.0 194:0.0 195:1.0 196:1.0 197:1.0 198:1.0 199:0.0 200:0.0 201:0.0 202:0.0 203:0.0 204:1.0 205:0.0 206:0.0 207:0.0 208:0.0 209:0.0 210:0.0 211:0.0 212:0.0 213:1.0 214:1.0 215:0.0 216:0.0 217:0.0 218:0.0 219:1.0 220:1.0 221:0.0 222:0.0 223:0.0 224:0.0 225:0.0 226:0.0 227:0.0 228:0.0 229:1.0 230:1.0 231:1.0 232:1.0 233:1.0 234:1.0 235:1.0 236:0.0 237:0.0 238:0.0 239:0.0 240:0.0 241:0.0 242:0.0 243:0.0 244:0.0 245:0.0 246:1.0 247:1.0 248:1.0 249:1.0 250:1.0 251:0.0 252:0.0 253:0.0 254:0.0 255:0.0 256:0.0 
0.05722160062121443 0.029333026350700495 0.02827752452757431 0.03797680774674457 0.020771598613383336 0.034186799849005606 0.06135908539283785 0.050610245906955134 0.031081035289050426 0.034431989207350515 0.01118455056380935 0.029472717002496252 0.03047165498353268 0.01530809792546223 0.018927457728121214 0.06742481166814143 0.04438373626480542 0.02140399925507938 0.021573254634217415 0.013157212126946758 0.053689688072104294 0.02886327808703429 0.04571702231769587 0.008001692746266031 0.07084939231222037 0.02065416337997965 0.04206530364844889 0.026105354357851957 0.024425044834658034 0.03150885500019557 1:0.0 2:0.0 3:0.0 4:0.0 5:0.0 6:0.0 7:0.0 8:0.0 9:0.0 10:0.0 11:0.0 12:0.0 13:0.0 14:0.0 15:0.0 16:0.0 17:0.0 18:0.0 19:1.0 20:0.0 21:0.0 22:0.0 23:0.0 24:0.0 25:0.0 26:0.0 27:0.0 28:0.0 29:0.0 30:0.0 31:0.0 32:0.0 33:0.0 34:0.0 35:0.0 36:0.0 37:0.0 38:0.0 39:0.0 40:0.0 41:0.0 42:0.0 43:0.0 44:0.0 45:0.0 46:0.0 47:0.0 48:0.0 49:0.0 50:0.0 51:1.0 52:0.0 53:0.0 54:0.0 55:0.0 56:0.0 57:0.0 58:0.0 59:0.0 60:0.0 61:0.0 62:0.0 63:0.0 64:0.0 65:0.0 66:0.0 67:0.0 68:0.0 69:0.0 70:0.0 71:0.0 72:1.0 73:1.0 74:1.0 75:0.0 76:0.0 77:0.0 78:0.0 79:0.0 80:0.0 81:0.0 82:1.0 83:0.0 84:0.0 85:0.0 86:1.0 87:1.0 88:1.0 89:0.0 90:0.0 91:0.0 92:0.0 93:0.0 94:0.0 95:0.0 96:0.0 97:0.0 98:0.0 99:0.0 100:0.0 101:1.0 102:1.0 103:1.0 104:0.0 105:0.0 106:0.0 107:0.0 108:0.0 109:0.0 110:0.0 111:0.0 112:0.0 113:0.0 114:0.0 115:0.0 116:1.0 117:1.0 118:1.0 119:0.0 120:0.0 121:1.0 122:1.0 123:1.0 124:1.0 125:1.0 126:0.0 127:0.0 128:0.0 129:0.0 130:0.0 131:1.0 132:1.0 133:0.0 134:0.0 135:1.0 136:1.0 137:0.0 138:0.0 139:0.0 140:1.0 141:1.0 142:1.0 143:0.0 144:0.0 145:0.0 146:0.0 147:0.0 148:0.0 149:0.0 150:0.0 151:1.0 152:1.0 153:0.0 154:0.0 155:0.0 156:0.0 157:1.0 158:1.0 159:0.0 160:0.0 161:0.0 162:0.0 163:0.0 164:0.0 165:0.0 166:0.0 167:1.0 168:1.0 169:0.0 170:0.0 171:0.0 172:1.0 173:1.0 174:1.0 175:0.0 176:0.0 177:0.0 178:0.0 179:0.0 180:0.0 181:0.0 182:0.0 183:0.0 184:0.0 185:1.0 186:1.0 187:1.0 188:1.0 189:1.0 190:1.0 191:1.0 192:0.0 193:0.0 194:0.0 195:0.0 196:0.0 197:0.0 198:0.0 199:0.0 200:1.0 201:1.0 202:0.0 203:0.0 204:0.0 205:0.0 206:1.0 207:1.0 208:0.0 209:0.0 210:0.0 211:0.0 212:0.0 213:0.0 214:0.0 215:0.0 216:1.0 217:1.0 218:0.0 219:0.0 220:0.0 221:1.0 222:1.0 223:1.0 224:0.0 225:0.0 226:0.0 227:0.0 228:0.0 229:0.0 230:0.0 231:0.0 232:1.0 233:1.0 234:1.0 235:0.0 236:1.0 237:1.0 238:0.0 239:1.0 240:0.0 241:0.0 242:0.0 243:0.0 244:0.0 245:0.0 246:0.0 247:0.0 248:0.0 249:1.0 250:1.0 251:1.0 252:1.0 253:0.0 254:0.0 255:0.0 256:0.0 
0.03224496334937669 0.04164772113462523 0.017443058687603086 0.02022399803447598 0.011065270228040732 0.024600116773304755 0.05441434034910329 0.05178902946402158 0.04259725154073301 0.011728196642308172 0.0015911685601396979 0.03632978060358666 0.04334040115687352 0.036085234719101036 0.021143925837806898 0.029614234896781468 0.04648823281778129 0.03757668489426495 0.02917225717811996 0.015771223870791686 0.025940237476164068 0.016932298925499363 0.06027729200548443 0.03121721004997722 0.05564847770401438 0.0258297783429577 0.05597123473037324 0.054064694582313264 0.04169007794513621 0.0405190717123005 1:0.0 2:0.0 3:0.0 4:0.0 5:0.0 6:0.0 7:1.0 8:1.0 9:1.0 10:0.0 11:0.0 12:0.0 13:0.0 14:0.0 15:0.0 16:0.0 17:0.0 18:0.0 19:0.0 20:1.0 21:1.0 22:1.0 23:1.0 24:1.0 25:1.0 26:1.0 27:1.0 28:0.0 29:0.0 30:0.0 31:0.0 32:0.0 33:0.0 34:0.0 35:0.0 36:0.0 37:0.0 38:0.0 39:0.0 40:0.0 41:0.0 42:0.0 43:1.0 44:1.0 45:1.0 46:1.0 47:0.0 48:0.0 49:0.0 50:0.0 51:0.0 52:0.0 53:0.0 54:0.0 55:0.0 56:0.0 57:0.0 58:0.0 59:0.0 60:1.0 61:1.0 62:0.0 63:0.0 64:0.0 65:0.0 66:0.0 67:1.0 68:1.0 69:1.0 70:1.0 71:1.0 72:1.0 73:0.0 74:0.0 75:0.0 76:1.0 77:1.0 78:1.0 79:0.0 80:0.0 81:1.0 82:1.0 83:1.0 84:0.0 85:0.0 86:0.0 87:0.0 88:1.0 89:1.0 90:1.0 91:1.0 92:1.0 93:1.0 94:1.0 95:1.0 96:0.0 97:1.0 98:1.0 99:0.0 100:0.0 101:0.0 102:0.0 103:0.0 104:0.0 105:0.0 106:1.0 107:1.0 108:1.0 109:1.0 110:0.0 111:0.0 112:0.0 113:1.0 114:1.0 115:0.0 116:0.0 117:0.0 118:0.0 119:0.0 120:0.0 121:0.0 122:1.0 123:1.0 124:1.0 125:1.0 126:0.0 127:0.0 128:0.0 129:0.0 130:1.0 131:1.0 132:1.0 133:1.0 134:1.0 135:1.0 136:1.0 137:1.0 138:1.0 139:0.0 140:0.0 141:0.0 142:0.0 143:0.0 144:0.0 145:0.0 146:0.0 147:0.0 148:1.0 149:1.0 150:1.0 151:0.0 152:0.0 153:1.0 154:1.0 155:0.0 156:0.0 157:0.0 158:0.0 159:0.0 160:0.0 161:0.0 162:0.0 163:0.0 164:0.0 165:0.0 166:0.0 167:0.0 168:0.0 169:1.0 170:1.0 171:1.0 172:0.0 173:0.0 174:0.0 175:0.0 176:0.0 177:0.0 178:0.0 179:0.0 180:0.0 181:0.0 182:0.0 183:0.0 184:0.0 185:0.0 186:0.0 187:0.0 188:0.0 189:0.0 190:0.0 191:0.0 192:0.0 193:0.0 194:0.0 195:0.0 196:0.0 197:0.0 198:0.0 199:0.0 200:0.0 201:0.0 202:0.0 203:0.0 204:0.0 205:0.0 206:0.0 207:0.0 208:0.0 209:0.0 210:0.0 211:0.0 212:0.0 213:0.0 214:0.0 215:0.0 216:0.0 217:0.0 218:0.0 219:0.0 220:0.0 221:0.0 222:0.0 223:0.0 224:0.0 225:0.0 226:0.0 227:0.0 228:0.0 229:0.0 230:0.0 231:0.0 232:0.0 233:0.0 234:0.0 235:0.0 236:0.0 237:0.0 238:0.0 239:0.0 240:0.0 241:0.0 242:0.0 243:0.0 244:0.0 245:0.0 246:0.0 247:0.0 248:0.0 249:0.0 250:0.0 251:0.0 252:0.0 253:0.0 254:0.0 255:0.0 256:0.0 
0.0057562454642034865 0.03564236023431074 5.037821255948305E-4 0.008224613735187309 0.012459950021602028 0.008713210146116765 0.03184144883673772 0.021532817345921006 0.016710140143681176 0.012524176392888725 0.0028618138899123456 0.011943131911010922 0.014611035352519966 0.005322250147854034 6.21857313377477E-4 0.004802573355173629 0.04120548244841503 0.015353428275019428 0.0 0.0128165817831249 0.01917378800646907 0.018316830994586815 0.03191307181598125 0.003307746263429152 0.015754055148912066 0.03654673485501851 0.009229697041353298 0.019832851827095044 0.023134561215498752 0.0 1:0.0 2:0.0 3:0.0 4:0.0 5:0.0 6:0.0 7:0.0 8:0.0 9:0.0 10:0.0 11:0.0 12:0.0 13:1.0 14:1.0 15:1.0 16:0.0 17:0.0 18:0.0 19:0.0 20:0.0 21:0.0 22:0.0 23:0.0 24:0.0 25:0.0 26:0.0 27:0.0 28:1.0 29:0.0 30:0.0 31:0.0 32:0.0 33:0.0 34:0.0 35:0.0 36:0.0 37:0.0 38:0.0 39:0.0 40:0.0 41:0.0 42:0.0 43:0.0 44:1.0 45:1.0 46:0.0 47:0.0 48:0.0 49:1.0 50:1.0 51:1.0 52:0.0 53:0.0 54:0.0 55:0.0 56:0.0 57:0.0 58:1.0 59:1.0 60:1.0 61:0.0 62:0.0 63:0.0 64:0.0 65:1.0 66:1.0 67:1.0 68:1.0 69:1.0 70:0.0 71:0.0 72:0.0 73:0.0 74:1.0 75:1.0 76:1.0 77:1.0 78:1.0 79:1.0 80:0.0 81:1.0 82:1.0 83:1.0 84:0.0 85:1.0 86:1.0 87:1.0 88:1.0 89:1.0 90:1.0 91:1.0 92:1.0 93:0.0 94:0.0 95:0.0 96:0.0 97:1.0 98:1.0 99:1.0 100:0.0 101:0.0 102:1.0 103:1.0 104:1.0 105:1.0 106:1.0 107:1.0 108:0.0 109:0.0 110:0.0 111:0.0 112:0.0 113:1.0 114:1.0 115:1.0 116:0.0 117:0.0 118:0.0 119:0.0 120:1.0 121:1.0 122:1.0 123:1.0 124:1.0 125:0.0 126:0.0 127:0.0 128:0.0 129:1.0 130:1.0 131:1.0 132:0.0 133:0.0 134:0.0 135:0.0 136:1.0 137:1.0 138:1.0 139:1.0 140:1.0 141:1.0 142:0.0 143:0.0 144:0.0 145:1.0 146:1.0 147:1.0 148:0.0 149:0.0 150:1.0 151:1.0 152:1.0 153:1.0 154:1.0 155:1.0 156:1.0 157:1.0 158:1.0 159:1.0 160:0.0 161:1.0 162:1.0 163:1.0 164:1.0 165:1.0 166:1.0 167:1.0 168:1.0 169:1.0 170:0.0 171:0.0 172:0.0 173:0.0 174:0.0 175:0.0 176:0.0 177:1.0 178:1.0 179:1.0 180:1.0 181:1.0 182:1.0 183:1.0 184:0.0 185:0.0 186:0.0 187:0.0 188:0.0 189:0.0 190:0.0 191:0.0 192:0.0 193:0.0 194:1.0 195:1.0 196:1.0 197:0.0 198:0.0 199:0.0 200:0.0 201:0.0 202:0.0 203:0.0 204:0.0 205:0.0 206:0.0 207:0.0 208:0.0 209:0.0 210:1.0 211:1.0 212:1.0 213:0.0 214:0.0 215:0.0 216:0.0 217:0.0 218:0.0 219:0.0 220:0.0 221:0.0 222:0.0 223:0.0 224:0.0 225:0.0 226:1.0 227:1.0 228:1.0 229:0.0 230:0.0 231:0.0 232:0.0 233:0.0 234:0.0 235:0.0 236:0.0 237:0.0 238:0.0 239:0.0 240:0.0 241:0.0 242:1.0 243:1.0 244:0.0 245:0.0 246:0.0 247:0.0 248:0.0 249:0.0 250:0.0 251:0.0 252:0.0 253:0.0 254:0.0 255:0.0 256:0.0 
0.050181963823830625 0.026948323059128004 0.013776850578029968 0.04126569056008793 0.013416858572691625 0.023436719479087962 0.04507378373344583 0.05661423321051932 0.02805824165652735 0.015455552546113251 0.003370424295990728 0.02166461496620909 0.023615125824836585 0.00830713369486975 0.0037063795338543757 0.025233879847787036 0.03790588121200045 0.024058922670322364 0.03587693225391463 0.013047021942105167 0.01823068646169871 0.039639861100214946 0.04387524325795605 0.01841630504742771 0.04274710902586081 0.01649718607450575 0.058177980712131885 0.017324186050991994 0.01841168336619034 0.03804787260234297 1:0.0 2:0.0 3:0.0 4:0.0 5:0.0 6:0.0 7:0.0 8:0.0 9:0.0 10:0.0 11:0.0 12:0.0 13:0.0 14:0.0 15:0.0 16:0.0 17:0.0 18:0.0 19:0.0 20:0.0 21:0.0 22:0.0 23:0.0 24:0.0 25:0.0 26:0.0 27:0.0 28:0.0 29:0.0 30:0.0 31:0.0 32:0.0 33:0.0 34:0.0 35:0.0 36:0.0 37:0.0 38:0.0 39:0.0 40:0.0 41:0.0 42:0.0 43:0.0 44:0.0 45:0.0 46:0.0 47:0.0 48:0.0 49:0.0 50:0.0 51:0.0 52:0.0 53:0.0 54:0.0 55:0.0 56:0.0 57:1.0 58:1.0 59:0.0 60:0.0 61:0.0 62:0.0 63:0.0 64:0.0 65:0.0 66:0.0 67:0.0 68:0.0 69:0.0 70:0.0 71:0.0 72:1.0 73:1.0 74:0.0 75:0.0 76:0.0 77:0.0 78:0.0 79:0.0 80:0.0 81:0.0 82:0.0 83:0.0 84:0.0 85:0.0 86:0.0 87:1.0 88:1.0 89:0.0 90:0.0 91:0.0 92:0.0 93:0.0 94:0.0 95:0.0 96:0.0 97:0.0 98:0.0 99:0.0 100:0.0 101:0.0 102:0.0 103:1.0 104:1.0 105:0.0 106:1.0 107:0.0 108:0.0 109:0.0 110:0.0 111:0.0 112:0.0 113:0.0 114:0.0 115:0.0 116:0.0 117:0.0 118:1.0 119:1.0 120:0.0 121:1.0 122:1.0 123:1.0 124:0.0 125:0.0 126:0.0 127:0.0 128:0.0 129:0.0 130:0.0 131:0.0 132:0.0 133:0.0 134:1.0 135:0.0 136:0.0 137:1.0 138:0.0 139:1.0 140:1.0 141:0.0 142:0.0 143:0.0 144:0.0 145:0.0 146:0.0 147:0.0 148:0.0 149:1.0 150:1.0 151:0.0 152:0.0 153:1.0 154:0.0 155:0.0 156:1.0 157:1.0 158:0.0 159:0.0 160:0.0 161:0.0 162:0.0 163:0.0 164:0.0 165:1.0 166:1.0 167:0.0 168:1.0 169:1.0 170:0.0 171:0.0 172:0.0 173:1.0 174:1.0 175:0.0 176:0.0 177:0.0 178:0.0 179:0.0 180:1.0 181:1.0 182:0.0 183:0.0 184:1.0 185:1.0 186:0.0 187:1.0 188:1.0 189:1.0 190:1.0 191:0.0 192:0.0 193:0.0 194:0.0 195:1.0 196:1.0 197:1.0 198:0.0 199:0.0 200:1.0 201:1.0 202:1.0 203:0.0 204:0.0 205:0.0 206:0.0 207:1.0 208:0.0 209:0.0 210:0.0 211:0.0 212:0.0 213:0.0 214:0.0 215:0.0 216:1.0 217:1.0 218:0.0 219:0.0 220:0.0 221:0.0 222:0.0 223:0.0 224:0.0 225:0.0 226:0.0 227:0.0 228:0.0 229:0.0 230:0.0 231:0.0 232:1.0 233:1.0 234:0.0 235:0.0 236:0.0 237:0.0 238:0.0 239:0.0 240:0.0 241:0.0 242:0.0 243:0.0 244:0.0 245:0.0 246:0.0 247:0.0 248:1.0 249:0.0 250:0.0 251:0.0 252:0.0 253:0.0 254:0.0 255:0.0 256:0.0 
-0.018563107662969303 0.0360470740831502 0.0125181677741409 0.004808637472589437 0.0021910320340403095 0.01716840697786146 0.0 0.007323207953179026 0.003680624031131931 0.0 0.015218522429643156 0.008524247988428092 0.015111421173386387 0.003367805769087197 0.0 0.015863871990082597 0.021640038577360313 0.012792676558560064 0.0168225209689795 6.128199169600211E-4 0.01339458187555342 0.035772739724079586 0.01625137710442085 0.007964173839264937 0.011816524181285617 0.0 0.014772195698825936 0.024411906117151893 0.011166811326089706 0.005655216463073707 1:0.0 2:0.0 3:0.0 4:0.0 5:0.0 6:0.0 7:0.0 8:0.0 9:0.0 10:0.0 11:0.0 12:0.0 13:0.0 14:0.0 15:0.0 16:0.0 17:0.0 18:0.0 19:0.0 20:0.0 21:0.0 22:0.0 23:0.0 24:0.0 25:0.0 26:0.0 27:0.0 28:0.0 29:0.0 30:0.0 31:0.0 32:0.0 33:0.0 34:0.0 35:0.0 36:0.0 37:0.0 38:0.0 39:0.0 40:0.0 41:0.0 42:0.0 43:0.0 44:0.0 45:0.0 46:0.0 47:0.0 48:0.0 49:0.0 50:0.0 51:0.0 52:0.0 53:0.0 54:0.0 55:0.0 56:0.0 57:0.0 58:1.0 59:1.0 60:0.0 61:0.0 62:0.0 63:0.0 64:0.0 65:0.0 66:0.0 67:0.0 68:0.0 69:0.0 70:0.0 71:0.0 72:0.0 73:1.0 74:1.0 75:0.0 76:0.0 77:0.0 78:0.0 79:0.0 80:0.0 81:0.0 82:0.0 83:0.0 84:0.0 85:0.0 86:0.0 87:0.0 88:1.0 89:1.0 90:0.0 91:0.0 92:0.0 93:0.0 94:0.0 95:0.0 96:0.0 97:0.0 98:0.0 99:0.0 100:0.0 101:0.0 102:0.0 103:0.0 104:1.0 105:1.0 106:0.0 107:1.0 108:1.0 109:0.0 110:0.0 111:0.0 112:0.0 113:0.0 114:0.0 115:0.0 116:0.0 117:0.0 118:1.0 119:1.0 120:1.0 121:0.0 122:0.0 123:0.0 124:1.0 125:1.0 126:0.0 127:0.0 128:0.0 129:0.0 130:0.0 131:0.0 132:0.0 133:0.0 134:1.0 135:1.0 136:1.0 137:0.0 138:0.0 139:0.0 140:0.0 141:1.0 142:0.0 143:0.0 144:0.0 145:0.0 146:0.0 147:0.0 148:0.0 149:1.0 150:1.0 151:1.0 152:0.0 153:0.0 154:0.0 155:0.0 156:0.0 157:1.0 158:0.0 159:0.0 160:0.0 161:0.0 162:0.0 163:0.0 164:0.0 165:1.0 166:1.0 167:1.0 168:1.0 169:0.0 170:0.0 171:1.0 172:1.0 173:1.0 174:0.0 175:0.0 176:0.0 177:0.0 178:0.0 179:0.0 180:0.0 181:1.0 182:0.0 183:1.0 184:1.0 185:0.0 186:0.0 187:0.0 188:0.0 189:0.0 190:1.0 191:1.0 192:0.0 193:0.0 194:0.0 195:0.0 196:1.0 197:1.0 198:0.0 199:1.0 200:1.0 201:0.0 202:0.0 203:0.0 204:0.0 205:0.0 206:0.0 207:1.0 208:0.0 209:0.0 210:0.0 211:0.0 212:0.0 213:0.0 214:0.0 215:0.0 216:1.0 217:1.0 218:0.0 219:0.0 220:0.0 221:0.0 222:0.0 223:1.0 224:0.0 225:0.0 226:0.0 227:0.0 228:0.0 229:0.0 230:0.0 231:0.0 232:1.0 233:1.0 234:0.0 235:0.0 236:0.0 237:0.0 238:1.0 239:1.0 240:0.0 241:0.0 242:0.0 243:0.0 244:0.0 245:0.0 246:0.0 247:0.0 248:0.0 249:1.0 250:1.0 251:1.0 252:1.0 253:0.0 254:0.0 255:0.0 256:0.0 
-0.0539698813584813 0.015524615626922155 0.023299060206278862 0.04720943887598688 0.012149364316183343 0.05155879248560933 0.059528235578724005 0.03953725595556029 0.026153593261578525 0.028194331747326756 0.0 0.01787215411884145 0.020929634444362282 0.003542461508325439 0.021029185644235924 0.077464242123518 0.041938961577669305 0.03430216989975425 0.051113463558065786 0.022411656878153708 0.08640688168492072 0.02881622169131973 0.03039200409206106 0.023676244741159317 0.05840758446974869 0.03547015549190996 0.054565562535227895 0.01087403898248949 0.03493684493415749 0.03347607310005388 1:0.0 2:1.0 3:1.0 4:0.0 5:0.0 6:0.0 7:0.0 8:0.0 9:0.0 10:0.0 11:0.0 12:0.0 13:0.0 14:0.0 15:0.0 16:0.0 17:0.0 18:0.0 19:0.0 20:0.0 21:0.0 22:0.0 23:0.0 24:0.0 25:0.0 26:0.0 27:0.0 28:0.0 29:0.0 30:0.0 31:0.0 32:0.0 33:0.0 34:0.0 35:0.0 36:0.0 37:0.0 38:0.0 39:0.0 40:0.0 41:0.0 42:0.0 43:0.0 44:0.0 45:0.0 46:0.0 47:0.0 48:0.0 49:0.0 50:0.0 51:0.0 52:0.0 53:0.0 54:0.0 55:0.0 56:0.0 57:0.0 58:0.0 59:0.0 60:0.0 61:0.0 62:0.0 63:0.0 64:0.0 65:0.0 66:0.0 67:0.0 68:0.0 69:0.0 70:0.0 71:0.0 72:0.0 73:0.0 74:0.0 75:0.0 76:0.0 77:0.0 78:0.0 79:0.0 80:0.0 81:0.0 82:0.0 83:0.0 84:0.0 85:0.0 86:0.0 87:0.0 88:1.0 89:0.0 90:0.0 91:0.0 92:0.0 93:0.0 94:0.0 95:0.0 96:0.0 97:0.0 98:0.0 99:0.0 100:0.0 101:0.0 102:0.0 103:0.0 104:1.0 105:1.0 106:1.0 107:1.0 108:0.0 109:0.0 110:0.0 111:0.0 112:0.0 113:0.0 114:0.0 115:0.0 116:0.0 117:0.0 118:1.0 119:1.0 120:0.0 121:0.0 122:1.0 123:1.0 124:1.0 125:0.0 126:0.0 127:0.0 128:0.0 129:0.0 130:0.0 131:0.0 132:0.0 133:1.0 134:0.0 135:0.0 136:0.0 137:0.0 138:1.0 139:1.0 140:1.0 141:0.0 142:0.0 143:0.0 144:0.0 145:0.0 146:0.0 147:0.0 148:0.0 149:0.0 150:0.0 151:0.0 152:0.0 153:0.0 154:1.0 155:1.0 156:1.0 157:0.0 158:0.0 159:0.0 160:0.0 161:0.0 162:0.0 163:0.0 164:0.0 165:0.0 166:0.0 167:0.0 168:1.0 169:1.0 170:1.0 171:1.0 172:1.0 173:1.0 174:1.0 175:1.0 176:0.0 177:0.0 178:0.0 179:0.0 180:0.0 181:0.0 182:0.0 183:0.0 184:0.0 185:0.0 186:0.0 187:0.0 188:0.0 189:0.0 190:1.0 191:1.0 192:0.0 193:0.0 194:0.0 195:0.0 196:0.0 197:1.0 198:0.0 199:0.0 200:0.0 201:0.0 202:0.0 203:0.0 204:0.0 205:0.0 206:1.0 207:1.0 208:0.0 209:0.0 210:0.0 211:0.0 212:0.0 213:0.0 214:0.0 215:0.0 216:0.0 217:0.0 218:0.0 219:0.0 220:0.0 221:0.0 222:1.0 223:1.0 224:0.0 225:0.0 226:0.0 227:0.0 228:0.0 229:0.0 230:0.0 231:0.0 232:0.0 233:0.0 234:0.0 235:0.0 236:0.0 237:1.0 238:1.0 239:1.0 240:0.0 241:0.0 242:0.0 243:0.0 244:0.0 245:0.0 246:0.0 247:0.0 248:1.0 249:1.0 250:0.0 251:0.0 252:0.0 253:0.0 254:0.0 255:0.0 256:0.0 
-0.009697641879354986 0.020783706760459986 0.022100511686332525 0.0013704009137098748 0.0 0.0020548737451015686 0.031032050832218935 0.009014640894856527 0.026729934782384297 0.013505028839453896 0.012889199080806015 0.001644523603609703 0.04002461043772996 0.013802192665351945 0.0 0.0 0.0 0.007682082102453427 0.0 6.016954730336915E-4 0.06295307356253488 0.0037081966456884185 0.029756857888028974 8.60299300079297E-4 0.03613882448163144 0.003378674490392281 0.0 0.0 0.01602213368442319 0.005230361998566069 1:0.0 2:0.0 3:0.0 4:0.0 5:0.0 6:0.0 7:0.0 8:0.0 9:0.0 10:0.0 11:0.0 12:0.0 13:0.0 14:0.0 15:0.0 16:0.0 17:0.0 18:0.0 19:0.0 20:0.0 21:0.0 22:0.0 23:0.0 24:0.0 25:0.0 26:0.0 27:0.0 28:0.0 29:0.0 30:0.0 31:0.0 32:0.0 33:0.0 34:0.0 35:0.0 36:1.0 37:0.0 38:0.0 39:0.0 40:0.0 41:0.0 42:0.0 43:0.0 44:0.0 45:0.0 46:0.0 47:0.0 48:0.0 49:0.0 50:0.0 51:0.0 52:1.0 53:1.0 54:1.0 55:1.0 56:1.0 57:1.0 58:1.0 59:1.0 60:1.0 61:0.0 62:0.0 63:0.0 64:0.0 65:0.0 66:0.0 67:1.0 68:1.0 69:1.0 70:1.0 71:0.0 72:0.0 73:0.0 74:0.0 75:1.0 76:1.0 77:1.0 78:0.0 79:0.0 80:0.0 81:1.0 82:1.0 83:1.0 84:1.0 85:0.0 86:0.0 87:0.0 88:0.0 89:0.0 90:0.0 91:0.0 92:1.0 93:1.0 94:0.0 95:0.0 96:0.0 97:1.0 98:0.0 99:1.0 100:1.0 101:0.0 102:0.0 103:0.0 104:0.0 105:0.0 106:0.0 107:0.0 108:1.0 109:0.0 110:0.0 111:0.0 112:0.0 113:1.0 114:1.0 115:1.0 116:1.0 117:1.0 118:0.0 119:0.0 120:0.0 121:0.0 122:0.0 123:1.0 124:1.0 125:1.0 126:0.0 127:0.0 128:0.0 129:0.0 130:1.0 131:0.0 132:1.0 133:1.0 134:1.0 135:1.0 136:0.0 137:0.0 138:0.0 139:0.0 140:0.0 141:0.0 142:1.0 143:1.0 144:0.0 145:0.0 146:0.0 147:0.0 148:1.0 149:1.0 150:1.0 151:0.0 152:0.0 153:0.0 154:0.0 155:0.0 156:0.0 157:0.0 158:0.0 159:1.0 160:0.0 161:0.0 162:0.0 163:0.0 164:0.0 165:1.0 166:1.0 167:0.0 168:0.0 169:0.0 170:0.0 171:0.0 172:0.0 173:0.0 174:0.0 175:1.0 176:0.0 177:0.0 178:0.0 179:0.0 180:0.0 181:1.0 182:1.0 183:1.0 184:0.0 185:0.0 186:0.0 187:0.0 188:0.0 189:0.0 190:1.0 191:1.0 192:0.0 193:0.0 194:0.0 195:0.0 196:0.0 197:0.0 198:1.0 199:1.0 200:0.0 201:0.0 202:0.0 203:0.0 204:1.0 205:1.0 206:1.0 207:0.0 208:0.0 209:0.0 210:0.0 211:0.0 212:0.0 213:0.0 214:1.0 215:1.0 216:1.0 217:1.0 218:1.0 219:1.0 220:1.0 221:0.0 222:0.0 223:0.0 224:0.0 225:0.0 226:0.0 227:0.0 228:0.0 229:0.0 230:0.0 231:0.0 232:0.0 233:0.0 234:0.0 235:0.0 236:0.0 237:0.0 238:0.0 239:0.0 240:0.0 241:0.0 242:0.0 243:0.0 244:0.0 245:0.0 246:0.0 247:0.0 248:0.0 249:0.0 250:0.0 251:0.0 252:0.0 253:0.0 254:0.0 255:0.0 256:0.0 
-0.028972210002188328 0.022177258879503958 0.014931455379811014 0.027012116453208293 0.006202587302874232 0.02884766237297178 0.05191029638385318 0.04214142411673347 0.02635524459144503 0.025905236476509174 0.0011739418537494019 0.03275384133900869 0.048432167078485126 0.020647042527753904 0.021447420608577204 0.044968526525760395 0.037454117693256676 0.03233515547161058 0.04588590831198381 0.00788120984900871 0.042170979123532265 0.014748357015882509 0.05143123453423046 0.02430174206722815 0.05073596880451478 0.03017893205536041 0.053614350336062606 0.04316963774544458 0.023592341061551007 0.02935280275215651 1:0.0 2:0.0 3:0.0 4:0.0 5:0.0 6:0.0 7:1.0 8:1.0 9:0.0 10:0.0 11:0.0 12:0.0 13:0.0 14:0.0 15:0.0 16:0.0 17:0.0 18:0.0 19:0.0 20:0.0 21:0.0 22:1.0 23:1.0 24:0.0 25:0.0 26:0.0 27:0.0 28:0.0 29:0.0 30:0.0 31:0.0 32:0.0 33:0.0 34:0.0 35:0.0 36:1.0 37:1.0 38:1.0 39:1.0 40:0.0 41:0.0 42:0.0 43:0.0 44:0.0 45:0.0 46:0.0 47:0.0 48:0.0 49:0.0 50:0.0 51:0.0 52:0.0 53:0.0 54:1.0 55:1.0 56:1.0 57:1.0 58:1.0 59:1.0 60:0.0 61:0.0 62:0.0 63:0.0 64:0.0 65:0.0 66:0.0 67:0.0 68:0.0 69:0.0 70:0.0 71:0.0 72:0.0 73:0.0 74:1.0 75:1.0 76:1.0 77:1.0 78:0.0 79:0.0 80:0.0 81:0.0 82:1.0 83:0.0 84:0.0 85:0.0 86:0.0 87:0.0 88:0.0 89:0.0 90:0.0 91:0.0 92:1.0 93:1.0 94:0.0 95:0.0 96:0.0 97:1.0 98:1.0 99:1.0 100:0.0 101:0.0 102:0.0 103:0.0 104:0.0 105:0.0 106:0.0 107:0.0 108:1.0 109:1.0 110:1.0 111:0.0 112:0.0 113:0.0 114:1.0 115:1.0 116:1.0 117:1.0 118:0.0 119:0.0 120:0.0 121:0.0 122:0.0 123:1.0 124:0.0 125:0.0 126:0.0 127:0.0 128:0.0 129:0.0 130:1.0 131:1.0 132:1.0 133:1.0 134:1.0 135:0.0 136:0.0 137:0.0 138:1.0 139:1.0 140:1.0 141:1.0 142:0.0 143:0.0 144:0.0 145:0.0 146:0.0 147:0.0 148:0.0 149:0.0 150:1.0 151:1.0 152:1.0 153:1.0 154:1.0 155:1.0 156:0.0 157:0.0 158:0.0 159:0.0 160:0.0 161:0.0 162:0.0 163:0.0 164:0.0 165:0.0 166:0.0 167:0.0 168:0.0 169:0.0 170:0.0 171:1.0 172:1.0 173:1.0 174:0.0 175:0.0 176:0.0 177:0.0 178:0.0 179:0.0 180:0.0 181:0.0 182:0.0 183:0.0 184:0.0 185:0.0 186:0.0 187:1.0 188:1.0 189:1.0 190:0.0 191:0.0 192:0.0 193:0.0 194:0.0 195:0.0 196:0.0 197:0.0 198:0.0 199:0.0 200:0.0 201:0.0 202:0.0 203:1.0 204:1.0 205:1.0 206:0.0 207:0.0 208:0.0 209:0.0 210:0.0 211:0.0 212:0.0 213:0.0 214:0.0 215:0.0 216:0.0 217:0.0 218:0.0 219:0.0 220:1.0 221:1.0 222:1.0 223:0.0 224:0.0 225:0.0 226:0.0 227:0.0 228:0.0 229:0.0 230:0.0 231:0.0 232:0.0 233:0.0 234:0.0 235:0.0 236:1.0 237:1.0 238:1.0 239:1.0 240:0.0 241:0.0 242:0.0 243:0.0 244:0.0 245:0.0 246:0.0 247:0.0 248:0.0 249:0.0 250:0.0 251:0.0 252:0.0 253:0.0 254:0.0 255:0.0 256:0.0 
-0.03760933847252447 0.020288952398947107 0.015744908860914942 0.052087104439128465 0.018916407498056013 0.018060359426177147 0.06961660291753008 0.022362748925787514 0.0037436568796717527 0.026488096263070353 0.004303789209482034 0.021019194864296434 0.03143485059781947 0.007390745739920662 0.020574314893167356 0.012412596998378041 0.032244846941232384 0.01436286112380361 0.02078219898329403 0.01776034658308035 0.049137878763399964 0.02047609276732835 0.025050619448411422 0.012881563960182047 0.04375612787424417 0.01874206240441726 0.029038895311931157 0.028459483170395043 0.013387082787158059 0.02003210177132722 1:0.0 2:0.0 3:0.0 4:0.0 5:0.0 6:0.0 7:0.0 8:0.0 9:0.0 10:1.0 11:1.0 12:0.0 13:0.0 14:0.0 15:0.0 16:0.0 17:0.0 18:0.0 19:0.0 20:0.0 21:0.0 22:0.0 23:0.0 24:1.0 25:1.0 26:0.0 27:0.0 28:0.0 29:0.0 30:0.0 31:0.0 32:0.0 33:0.0 34:0.0 35:0.0 36:0.0 37:0.0 38:0.0 39:0.0 40:1.0 41:0.0 42:0.0 43:0.0 44:0.0 45:0.0 46:0.0 47:0.0 48:0.0 49:0.0 50:0.0 51:0.0 52:0.0 53:0.0 54:0.0 55:1.0 56:1.0 57:1.0 58:0.0 59:0.0 60:0.0 61:0.0 62:0.0 63:0.0 64:0.0 65:0.0 66:0.0 67:0.0 68:0.0 69:0.0 70:1.0 71:1.0 72:1.0 73:1.0 74:1.0 75:1.0 76:1.0 77:1.0 78:1.0 79:0.0 80:0.0 81:0.0 82:0.0 83:0.0 84:0.0 85:0.0 86:1.0 87:1.0 88:1.0 89:0.0 90:0.0 91:0.0 92:1.0 93:1.0 94:1.0 95:1.0 96:0.0 97:0.0 98:0.0 99:0.0 100:1.0 101:1.0 102:1.0 103:1.0 104:0.0 105:0.0 106:0.0 107:0.0 108:0.0 109:0.0 110:1.0 111:1.0 112:0.0 113:0.0 114:0.0 115:1.0 116:1.0 117:1.0 118:0.0 119:0.0 120:0.0 121:0.0 122:0.0 123:0.0 124:0.0 125:0.0 126:1.0 127:0.0 128:0.0 129:0.0 130:1.0 131:1.0 132:1.0 133:1.0 134:0.0 135:0.0 136:0.0 137:0.0 138:0.0 139:0.0 140:0.0 141:0.0 142:1.0 143:1.0 144:0.0 145:1.0 146:1.0 147:1.0 148:1.0 149:1.0 150:0.0 151:0.0 152:0.0 153:0.0 154:0.0 155:1.0 156:1.0 157:1.0 158:0.0 159:0.0 160:0.0 161:1.0 162:1.0 163:0.0 164:1.0 165:1.0 166:1.0 167:0.0 168:0.0 169:0.0 170:0.0 171:1.0 172:0.0 173:0.0 174:0.0 175:0.0 176:0.0 177:0.0 178:0.0 179:0.0 180:1.0 181:1.0 182:1.0 183:1.0 184:0.0 185:1.0 186:1.0 187:1.0 188:1.0 189:1.0 190:0.0 191:0.0 192:0.0 193:0.0 194:0.0 195:0.0 196:0.0 197:0.0 198:0.0 199:1.0 200:1.0 201:1.0 202:0.0 203:0.0 204:0.0 205:0.0 206:0.0 207:0.0 208:0.0 209:0.0 210:0.0 211:0.0 212:0.0 213:0.0 214:0.0 215:0.0 216:0.0 217:0.0 218:0.0 219:0.0 220:0.0 221:0.0 222:0.0 223:0.0 224:0.0 225:0.0 226:0.0 227:0.0 228:0.0 229:0.0 230:0.0 231:0.0 232:0.0 233:0.0 234:0.0 235:0.0 236:0.0 237:0.0 238:0.0 239:0.0 240:0.0 241:0.0 242:0.0 243:0.0 244:0.0 245:0.0 246:0.0 247:0.0 248:0.0 249:0.0 250:0.0 251:0.0 252:0.0 253:0.0 254:0.0 255:0.0 256:0.0 
-0.03827589452078871 0.01719146778453306 0.010840550118930384 0.01205187917730245 0.04450470271382779 0.028567359264651652 0.028744649759585853 0.05610834676834546 0.06164803971158034 0.016713796947022776 0.01104469347810346 0.03756152217993641 0.04054730734415252 0.021602219531964166 0.017480754027961794 0.03963613027903469 0.039118630699181534 0.021247431912099504 0.02392286654727621 3.976031602476904E-4 0.01281656549416536 0.01878915113647553 0.06313683514783368 0.02067557194030915 0.05991762059311808 0.008709813620768845 0.04244997196927471 0.02707914256038069 0.027778582958724582 0.03787197370292423 1:0.0 2:0.0 3:0.0 4:0.0 5:0.0 6:0.0 7:0.0 8:0.0 9:0.0 10:0.0 11:0.0 12:0.0 13:0.0 14:0.0 15:0.0 16:0.0 17:0.0 18:0.0 19:0.0 20:0.0 21:0.0 22:0.0 23:0.0 24:0.0 25:0.0 26:0.0 27:0.0 28:0.0 29:0.0 30:0.0 31:0.0 32:0.0 33:0.0 34:0.0 35:0.0 36:0.0 37:0.0 38:0.0 39:0.0 40:0.0 41:0.0 42:0.0 43:0.0 44:0.0 45:0.0 46:0.0 47:0.0 48:0.0 49:0.0 50:0.0 51:0.0 52:0.0 53:0.0 54:0.0 55:0.0 56:0.0 57:0.0 58:0.0 59:0.0 60:0.0 61:0.0 62:0.0 63:0.0 64:0.0 65:0.0 66:0.0 67:0.0 68:0.0 69:0.0 70:0.0 71:0.0 72:0.0 73:0.0 74:1.0 75:1.0 76:1.0 77:1.0 78:0.0 79:0.0 80:0.0 81:0.0 82:0.0 83:0.0 84:0.0 85:0.0 86:0.0 87:0.0 88:0.0 89:1.0 90:1.0 91:1.0 92:1.0 93:0.0 94:0.0 95:0.0 96:0.0 97:0.0 98:0.0 99:0.0 100:0.0 101:0.0 102:0.0 103:1.0 104:1.0 105:1.0 106:1.0 107:1.0 108:0.0 109:0.0 110:0.0 111:0.0 112:0.0 113:0.0 114:0.0 115:0.0 116:0.0 117:0.0 118:0.0 119:1.0 120:1.0 121:1.0 122:1.0 123:1.0 124:1.0 125:1.0 126:0.0 127:0.0 128:0.0 129:0.0 130:0.0 131:0.0 132:0.0 133:0.0 134:1.0 135:0.0 136:1.0 137:1.0 138:1.0 139:0.0 140:0.0 141:0.0 142:1.0 143:1.0 144:0.0 145:0.0 146:0.0 147:0.0 148:0.0 149:0.0 150:0.0 151:0.0 152:1.0 153:1.0 154:0.0 155:0.0 156:0.0 157:0.0 158:1.0 159:1.0 160:0.0 161:0.0 162:0.0 163:0.0 164:0.0 165:0.0 166:0.0 167:0.0 168:1.0 169:1.0 170:1.0 171:0.0 172:0.0 173:0.0 174:0.0 175:1.0 176:0.0 177:0.0 178:0.0 179:0.0 180:0.0 181:0.0 182:0.0 183:1.0 184:1.0 185:1.0 186:1.0 187:0.0 188:0.0 189:0.0 190:0.0 191:1.0 192:0.0 193:0.0 194:0.0 195:0.0 196:0.0 197:0.0 198:0.0 199:1.0 200:1.0 201:1.0 202:1.0 203:0.0 204:0.0 205:0.0 206:0.0 207:1.0 208:0.0 209:0.0 210:0.0 211:0.0 212:0.0 213:0.0 214:0.0 215:0.0 216:0.0 217:0.0 218:1.0 219:1.0 220:0.0 221:0.0 222:0.0 223:1.0 224:0.0 225:0.0 226:0.0 227:0.0 228:0.0 229:0.0 230:0.0 231:0.0 232:0.0 233:0.0 234:1.0 235:1.0 236:1.0 237:1.0 238:1.0 239:1.0 240:0.0 241:0.0 242:0.0 243:0.0 244:0.0 245:0.0 246:0.0 247:0.0 248:0.0 249:0.0 250:0.0 251:1.0 252:0.0 253:0.0 254:0.0 255:0.0 256:0.0 
-0.02610569496127789 0.04532391976378828 0.02066293804363849 0.047003389861008264 0.008942988239155354 0.0 0.09751382498139265 0.027916270674335122 0.011927187522742109 0.035785277035599417 0.0 0.01890361081415073 0.0 0.00842045224995373 0.0027279903711784526 0.011634149027386412 0.02684656374511427 0.0 0.016213602833145473 0.002010226211480961 0.03337175979690512 0.02811899198818377 0.0034555874471880288 0.014805830323787758 0.038732906437646895 0.014454143661833964 0.024110624814049363 0.002332840217812503 0.008996226743438869 0.014905227618618032 1:0.0 2:0.0 3:0.0 4:0.0 5:0.0 6:0.0 7:0.0 8:0.0 9:0.0 10:0.0 11:0.0 12:0.0 13:0.0 14:0.0 15:0.0 16:0.0 17:0.0 18:0.0 19:0.0 20:0.0 21:0.0 22:0.0 23:0.0 24:0.0 25:0.0 26:0.0 27:0.0 28:0.0 29:0.0 30:0.0 31:0.0 32:0.0 33:0.0 34:0.0 35:0.0 36:0.0 37:0.0 38:0.0 39:0.0 40:0.0 41:0.0 42:0.0 43:0.0 44:0.0 45:0.0 46:0.0 47:0.0 48:0.0 49:0.0 50:0.0 51:0.0 52:0.0 53:0.0 54:0.0 55:0.0 56:0.0 57:0.0 58:0.0 59:0.0 60:0.0 61:0.0 62:0.0 63:0.0 64:0.0 65:0.0 66:0.0 67:0.0 68:0.0 69:0.0 70:0.0 71:0.0 72:0.0 73:0.0 74:0.0 75:0.0 76:0.0 77:0.0 78:0.0 79:0.0 80:0.0 81:0.0 82:0.0 83:0.0 84:0.0 85:0.0 86:0.0 87:0.0 88:0.0 89:0.0 90:0.0 91:0.0 92:0.0 93:0.0 94:0.0 95:0.0 96:0.0 97:1.0 98:1.0 99:0.0 100:0.0 101:0.0 102:0.0 103:1.0 104:1.0 105:1.0 106:1.0 107:1.0 108:0.0 109:0.0 110:0.0 111:0.0 112:0.0 113:0.0 114:1.0 115:1.0 116:0.0 117:0.0 118:1.0 119:1.0 120:1.0 121:1.0 122:1.0 123:1.0 124:1.0 125:0.0 126:0.0 127:0.0 128:0.0 129:0.0 130:0.0 131:1.0 132:1.0 133:1.0 134:1.0 135:0.0 136:0.0 137:0.0 138:0.0 139:0.0 140:1.0 141:1.0 142:0.0 143:0.0 144:0.0 145:0.0 146:0.0 147:1.0 148:1.0 149:1.0 150:1.0 151:0.0 152:0.0 153:0.0 154:0.0 155:0.0 156:1.0 157:1.0 158:0.0 159:0.0 160:0.0 161:0.0 162:0.0 163:0.0 164:1.0 165:1.0 166:1.0 167:0.0 168:0.0 169:0.0 170:0.0 171:0.0 172:0.0 173:0.0 174:0.0 175:0.0 176:0.0 177:0.0 178:0.0 179:0.0 180:0.0 181:1.0 182:1.0 183:0.0 184:0.0 185:0.0 186:0.0 187:0.0 188:0.0 189:0.0 190:0.0 191:0.0 192:0.0 193:0.0 194:0.0 195:0.0 196:0.0 197:1.0 198:1.0 199:1.0 200:0.0 201:0.0 202:0.0 203:0.0 204:0.0 205:0.0 206:0.0 207:0.0 208:0.0 209:0.0 210:0.0 211:0.0 212:0.0 213:0.0 214:0.0 215:1.0 216:1.0 217:1.0 218:0.0 219:0.0 220:0.0 221:0.0 222:0.0 223:0.0 224:0.0 225:0.0 226:0.0 227:0.0 228:0.0 229:0.0 230:0.0 231:1.0 232:1.0 233:1.0 234:0.0 235:0.0 236:0.0 237:0.0 238:0.0 239:0.0 240:0.0 241:0.0 242:0.0 243:0.0 244:0.0 245:0.0 246:0.0 247:0.0 248:1.0 249:1.0 250:0.0 251:0.0 252:0.0 253:0.0 254:0.0 255:0.0 256:0.0 
-0.012274433232044512 0.02746808106207272 0.016094208971633314 0.026049205963833817 0.018058645373283767 0.02539372813393076 0.04352151688341267 0.017711275694241756 0.00992679585944203 0.005994993717932069 0.0 0.0336546295251337 0.03570532757543508 0.007879855144128199 0.02510871871769588 0.012252600640444348 0.03752969680095966 0.004004170508985517 0.012898499980811148 0.029063693700031035 0.08045696310810432 0.019742818453314957 0.03851346581907843 0.00376097534599182 0.020625986141081108 0.03937311196809202 0.0 0.020607714016795294 0.007461631840957314 0.03324305337201364 1:0.0 2:0.0 3:0.0 4:0.0 5:0.0 6:0.0 7:1.0 8:1.0 9:0.0 10:0.0 11:0.0 12:0.0 13:0.0 14:0.0 15:0.0 16:0.0 17:0.0 18:0.0 19:0.0 20:0.0 21:0.0 22:1.0 23:1.0 24:1.0 25:0.0 26:0.0 27:0.0 28:0.0 29:0.0 30:0.0 31:0.0 32:0.0 33:0.0 34:0.0 35:0.0 36:0.0 37:0.0 38:1.0 39:1.0 40:0.0 41:0.0 42:0.0 43:0.0 44:0.0 45:0.0 46:0.0 47:0.0 48:0.0 49:0.0 50:0.0 51:0.0 52:0.0 53:1.0 54:1.0 55:1.0 56:1.0 57:0.0 58:0.0 59:0.0 60:0.0 61:0.0 62:0.0 63:0.0 64:0.0 65:0.0 66:0.0 67:0.0 68:1.0 69:1.0 70:1.0 71:1.0 72:0.0 73:1.0 74:0.0 75:0.0 76:0.0 77:0.0 78:0.0 79:0.0 80:0.0 81:0.0 82:0.0 83:0.0 84:1.0 85:1.0 86:0.0 87:0.0 88:0.0 89:1.0 90:1.0 91:0.0 92:0.0 93:0.0 94:0.0 95:0.0 96:0.0 97:0.0 98:0.0 99:1.0 100:1.0 101:0.0 102:0.0 103:0.0 104:0.0 105:1.0 106:1.0 107:0.0 108:0.0 109:0.0 110:0.0 111:0.0 112:0.0 113:0.0 114:1.0 115:1.0 116:1.0 117:0.0 118:0.0 119:0.0 120:0.0 121:1.0 122:1.0 123:0.0 124:0.0 125:0.0 126:0.0 127:1.0 128:0.0 129:1.0 130:1.0 131:1.0 132:0.0 133:0.0 134:0.0 135:0.0 136:0.0 137:1.0 138:0.0 139:0.0 140:0.0 141:0.0 142:0.0 143:1.0 144:0.0 145:1.0 146:1.0 147:1.0 148:0.0 149:0.0 150:0.0 151:0.0 152:1.0 153:1.0 154:0.0 155:0.0 156:0.0 157:0.0 158:0.0 159:1.0 160:0.0 161:0.0 162:0.0 163:0.0 164:0.0 165:1.0 166:1.0 167:1.0 168:1.0 169:1.0 170:0.0 171:0.0 172:0.0 173:0.0 174:0.0 175:1.0 176:0.0 177:0.0 178:0.0 179:0.0 180:0.0 181:0.0 182:0.0 183:0.0 184:0.0 185:1.0 186:1.0 187:0.0 188:0.0 189:0.0 190:0.0 191:1.0 192:0.0 193:0.0 194:0.0 195:0.0 196:0.0 197:0.0 198:0.0 199:0.0 200:0.0 201:0.0 202:1.0 203:1.0 204:0.0 205:0.0 206:0.0 207:1.0 208:0.0 209:0.0 210:0.0 211:0.0 212:0.0 213:0.0 214:0.0 215:0.0 216:0.0 217:0.0 218:0.0 219:1.0 220:1.0 221:1.0 222:0.0 223:1.0 224:0.0 225:0.0 226:0.0 227:0.0 228:0.0 229:0.0 230:0.0 231:0.0 232:0.0 233:0.0 234:0.0 235:0.0 236:1.0 237:1.0 238:1.0 239:1.0 240:0.0 241:0.0 242:0.0 243:0.0 244:0.0 245:0.0 246:0.0 247:0.0 248:0.0 249:0.0 250:0.0 251:0.0 252:0.0 253:0.0 254:1.0 255:0.0 256:0.0 
-0.027337448929043027 0.052080696137176086 0.017546101593365827 0.028316111296945203 0.004475821170422179 0.012825628616372603 0.029831031080264702 0.03568493104960292 0.015705344235301864 0.044767967041015926 0.0014954438170154067 0.006810832552055371 0.004460530032659553 0.004688924706494208 0.007964957735833614 0.028286312520307177 0.006438053501546678 0.009563690375316456 0.0 0.017585829146306475 0.04666705162791334 0.014858889218424627 0.026700394981085673 0.0 0.01912530282773713 0.006806277313755154 0.014345805824060387 0.008136245873020802 0.0 0.0376404662637154 1:0.0 2:0.0 3:0.0 4:0.0 5:0.0 6:0.0 7:0.0 8:0.0 9:0.0 10:0.0 11:0.0 12:0.0 13:0.0 14:0.0 15:0.0 16:0.0 17:0.0 18:0.0 19:0.0 20:0.0 21:0.0 22:0.0 23:0.0 24:0.0 25:0.0 26:0.0 27:0.0 28:0.0 29:0.0 30:0.0 31:0.0 32:0.0 33:0.0 34:0.0 35:0.0 36:0.0 37:1.0 38:1.0 39:0.0 40:0.0 41:0.0 42:0.0 43:0.0 44:0.0 45:0.0 46:0.0 47:0.0 48:0.0 49:0.0 50:0.0 51:0.0 52:0.0 53:0.0 54:1.0 55:1.0 56:0.0 57:0.0 58:0.0 59:0.0 60:0.0 61:0.0 62:0.0 63:0.0 64:0.0 65:0.0 66:0.0 67:0.0 68:0.0 69:0.0 70:1.0 71:1.0 72:1.0 73:0.0 74:0.0 75:0.0 76:0.0 77:0.0 78:0.0 79:0.0 80:0.0 81:0.0 82:0.0 83:0.0 84:0.0 85:0.0 86:1.0 87:1.0 88:0.0 89:0.0 90:0.0 91:0.0 92:0.0 93:0.0 94:0.0 95:0.0 96:0.0 97:0.0 98:0.0 99:0.0 100:0.0 101:1.0 102:1.0 103:1.0 104:0.0 105:0.0 106:0.0 107:0.0 108:0.0 109:0.0 110:0.0 111:0.0 112:0.0 113:0.0 114:0.0 115:0.0 116:0.0 117:0.0 118:0.0 119:1.0 120:1.0 121:1.0 122:1.0 123:1.0 124:1.0 125:0.0 126:0.0 127:0.0 128:0.0 129:0.0 130:0.0 131:0.0 132:0.0 133:1.0 134:1.0 135:1.0 136:0.0 137:0.0 138:0.0 139:0.0 140:0.0 141:1.0 142:0.0 143:0.0 144:0.0 145:0.0 146:0.0 147:0.0 148:0.0 149:1.0 150:1.0 151:1.0 152:0.0 153:0.0 154:0.0 155:0.0 156:0.0 157:1.0 158:0.0 159:0.0 160:0.0 161:0.0 162:0.0 163:0.0 164:0.0 165:1.0 166:1.0 167:1.0 168:1.0 169:0.0 170:0.0 171:0.0 172:0.0 173:1.0 174:0.0 175:0.0 176:0.0 177:0.0 178:1.0 179:1.0 180:1.0 181:0.0 182:0.0 183:1.0 184:1.0 185:1.0 186:1.0 187:1.0 188:0.0 189:0.0 190:1.0 191:1.0 192:0.0 193:0.0 194:1.0 195:1.0 196:0.0 197:0.0 198:0.0 199:1.0 200:1.0 201:0.0 202:0.0 203:0.0 204:0.0 205:0.0 206:1.0 207:1.0 208:0.0 209:0.0 210:0.0 211:0.0 212:0.0 213:0.0 214:0.0 215:0.0 216:1.0 217:1.0 218:0.0 219:0.0 220:0.0 221:0.0 222:0.0 223:1.0 224:0.0 225:0.0 226:0.0 227:0.0 228:0.0 229:0.0 230:0.0 231:0.0 232:1.0 233:1.0 234:0.0 235:0.0 236:0.0 237:0.0 238:1.0 239:1.0 240:0.0 241:0.0 242:0.0 243:0.0 244:0.0 245:0.0 246:0.0 247:0.0 248:0.0 249:1.0 250:1.0 251:1.0 252:0.0 253:0.0 254:0.0 255:0.0 256:0.0 
-0.031506704198449066 0.03885858334032371 0.023575170385068456 0.04094317889675572 0.02571591591083893 0.04519873218430619 0.04515209410285352 0.03783544227629026 0.05545095660337767 0.05414966855073354 0.004369016185446914 0.04289914184749179 0.037025422106798156 0.018499159537326858 0.015314872502202573 0.02431666245099617 0.03342110583209155 0.01897080686728406 0.026785676664106854 0.027110101090275653 0.03493181783861133 0.016905956497499534 0.046812611891620344 0.015348030378153393 0.04340845549773629 0.035134292770648085 0.014049602589835836 0.04195031751687682 0.02697160171284712 0.029007536150757275 1:0.0 2:0.0 3:0.0 4:0.0 5:0.0 6:0.0 7:0.0 8:0.0 9:1.0 10:1.0 11:0.0 12:0.0 13:0.0 14:0.0 15:0.0 16:0.0 17:0.0 18:0.0 19:0.0 20:0.0 21:0.0 22:0.0 23:0.0 24:1.0 25:1.0 26:0.0 27:0.0 28:0.0 29:0.0 30:0.0 31:0.0 32:0.0 33:0.0 34:0.0 35:0.0 36:0.0 37:0.0 38:0.0 39:0.0 40:1.0 41:1.0 42:0.0 43:0.0 44:0.0 45:0.0 46:0.0 47:0.0 48:0.0 49:0.0 50:0.0 51:0.0 52:1.0 53:1.0 54:0.0 55:1.0 56:1.0 57:1.0 58:1.0 59:1.0 60:1.0 61:1.0 62:1.0 63:0.0 64:0.0 65:0.0 66:0.0 67:0.0 68:0.0 69:0.0 70:1.0 71:1.0 72:1.0 73:1.0 74:0.0 75:0.0 76:0.0 77:0.0 78:1.0 79:1.0 80:0.0 81:0.0 82:0.0 83:0.0 84:0.0 85:0.0 86:1.0 87:1.0 88:1.0 89:0.0 90:0.0 91:0.0 92:0.0 93:0.0 94:1.0 95:1.0 96:0.0 97:0.0 98:0.0 99:0.0 100:1.0 101:1.0 102:1.0 103:1.0 104:0.0 105:0.0 106:0.0 107:0.0 108:0.0 109:0.0 110:1.0 111:1.0 112:0.0 113:0.0 114:0.0 115:0.0 116:1.0 117:1.0 118:1.0 119:1.0 120:0.0 121:0.0 122:0.0 123:0.0 124:0.0 125:0.0 126:1.0 127:1.0 128:0.0 129:0.0 130:0.0 131:1.0 132:1.0 133:1.0 134:1.0 135:1.0 136:0.0 137:0.0 138:0.0 139:0.0 140:1.0 141:1.0 142:1.0 143:1.0 144:0.0 145:0.0 146:0.0 147:1.0 148:1.0 149:1.0 150:1.0 151:1.0 152:0.0 153:0.0 154:0.0 155:0.0 156:1.0 157:1.0 158:1.0 159:0.0 160:0.0 161:0.0 162:0.0 163:1.0 164:1.0 165:1.0 166:0.0 167:0.0 168:0.0 169:1.0 170:1.0 171:1.0 172:0.0 173:0.0 174:0.0 175:0.0 176:0.0 177:0.0 178:0.0 179:0.0 180:1.0 181:1.0 182:0.0 183:0.0 184:0.0 185:0.0 186:0.0 187:0.0 188:0.0 189:0.0 190:0.0 191:0.0 192:0.0 193:0.0 194:0.0 195:0.0 196:1.0 197:1.0 198:1.0 199:0.0 200:0.0 201:0.0 202:0.0 203:0.0 204:0.0 205:0.0 206:0.0 207:0.0 208:0.0 209:0.0 210:0.0 211:0.0 212:1.0 213:1.0 214:1.0 215:0.0 216:0.0 217:0.0 218:0.0 219:0.0 220:0.0 221:0.0 222:0.0 223:0.0 224:0.0 225:0.0 226:0.0 227:0.0 228:1.0 229:1.0 230:1.0 231:1.0 232:0.0 233:0.0 234:0.0 235:0.0 236:0.0 237:0.0 238:0.0 239:0.0 240:0.0 241:0.0 242:0.0 243:0.0 244:0.0 245:0.0 246:1.0 247:1.0 248:0.0 249:0.0 250:0.0 251:0.0 252:0.0 253:0.0 254:0.0 255:0.0 256:0.0 
-0.0012617579011579786 0.06195660012279018 0.002506407983763701 0.030958058321301513 0.010405890578543579 0.0377794320117555 0.03133257191281101 0.06414930520213616 0.00400188882353607 0.0 0.0 0.01635246199641062 0.038726910859573034 0.013741193287677853 0.003383925550615415 0.04849398151155438 0.033394607979571826 0.011230379714292946 0.009621580727671952 0.017071040028823783 0.0541218741553314 0.05265650026410854 0.05211713557496387 0.0022828699336736352 0.050198096513901405 0.047794299215945205 0.01749318342431535 0.030803933532792815 0.01195702701637856 0.029668988877308875 1:0.0 2:0.0 3:0.0 4:0.0 5:0.0 6:0.0 7:0.0 8:0.0 9:0.0 10:0.0 11:0.0 12:0.0 13:0.0 14:0.0 15:0.0 16:0.0 17:0.0 18:0.0 19:0.0 20:0.0 21:0.0 22:0.0 23:0.0 24:0.0 25:0.0 26:0.0 27:0.0 28:0.0 29:0.0 30:0.0 31:0.0 32:0.0 33:0.0 34:0.0 35:0.0 36:0.0 37:0.0 38:0.0 39:0.0 40:0.0 41:0.0 42:0.0 43:0.0 44:0.0 45:0.0 46:0.0 47:0.0 48:0.0 49:0.0 50:0.0 51:0.0 52:0.0 53:0.0 54:0.0 55:0.0 56:0.0 57:0.0 58:0.0 59:0.0 60:0.0 61:0.0 62:0.0 63:0.0 64:0.0 65:0.0 66:0.0 67:0.0 68:0.0 69:0.0 70:0.0 71:0.0 72:0.0 73:0.0 74:0.0 75:0.0 76:0.0 77:0.0 78:0.0 79:0.0 80:0.0 81:0.0 82:0.0 83:0.0 84:0.0 85:0.0 86:0.0 87:0.0 88:0.0 89:1.0 90:1.0 91:1.0 92:1.0 93:1.0 94:0.0 95:0.0 96:0.0 97:0.0 98:0.0 99:0.0 100:0.0 101:0.0 102:1.0 103:1.0 104:1.0 105:1.0 106:1.0 107:1.0 108:1.0 109:1.0 110:0.0 111:0.0 112:0.0 113:1.0 114:1.0 115:1.0 116:0.0 117:0.0 118:0.0 119:0.0 120:0.0 121:0.0 122:0.0 123:0.0 124:0.0 125:0.0 126:0.0 127:0.0 128:0.0 129:1.0 130:1.0 131:1.0 132:0.0 133:0.0 134:0.0 135:0.0 136:0.0 137:0.0 138:0.0 139:0.0 140:0.0 141:0.0 142:0.0 143:0.0 144:0.0 145:0.0 146:0.0 147:1.0 148:1.0 149:1.0 150:0.0 151:0.0 152:0.0 153:0.0 154:0.0 155:0.0 156:0.0 157:0.0 158:0.0 159:0.0 160:0.0 161:0.0 162:0.0 163:1.0 164:1.0 165:1.0 166:1.0 167:0.0 168:0.0 169:1.0 170:1.0 171:1.0 172:0.0 173:0.0 174:0.0 175:0.0 176:0.0 177:0.0 178:0.0 179:0.0 180:1.0 181:1.0 182:1.0 183:1.0 184:1.0 185:0.0 186:0.0 187:0.0 188:0.0 189:0.0 190:0.0 191:0.0 192:0.0 193:0.0 194:0.0 195:0.0 196:0.0 197:0.0 198:1.0 199:1.0 200:1.0 201:0.0 202:0.0 203:0.0 204:0.0 205:0.0 206:0.0 207:0.0 208:0.0 209:0.0 210:0.0 211:0.0 212:0.0 213:0.0 214:0.0 215:1.0 216:1.0 217:1.0 218:1.0 219:0.0 220:0.0 221:0.0 222:0.0 223:0.0 224:0.0 225:0.0 226:0.0 227:0.0 228:0.0 229:0.0 230:0.0 231:1.0 232:1.0 233:1.0 234:1.0 235:1.0 236:0.0 237:0.0 238:1.0 239:0.0 240:0.0 241:0.0 242:0.0 243:0.0 244:0.0 245:0.0 246:0.0 247:0.0 248:0.0 249:1.0 250:1.0 251:1.0 252:0.0 253:0.0 254:0.0 255:0.0 256:0.0 
-0.0017401254407217067 -0.0 0.007440917320919163 0.012537638228650339 0.0 0.013288651224656174 0.01855199996725448 0.009199745519978313 0.0 0.0 0.0 0.015359671767297068 0.023331479423146912 0.007619812187970645 0.0 0.007349994554591787 0.005454684163870676 0.004869953430255752 0.0 0.0036276414672228446 0.007845335497113025 0.013666126846571314 0.015823342296183096 0.0 0.01263268194857717 0.028670703038779555 0.0 0.015121795947371638 0.0 0.007052238057086228 1:0.0 2:0.0 3:0.0 4:0.0 5:0.0 6:0.0 7:0.0 8:0.0 9:0.0 10:0.0 11:0.0 12:0.0 13:0.0 14:0.0 15:0.0 16:0.0 17:0.0 18:0.0 19:0.0 20:0.0 21:0.0 22:0.0 23:0.0 24:0.0 25:0.0 26:0.0 27:0.0 28:0.0 29:0.0 30:0.0 31:0.0 32:0.0 33:0.0 34:0.0 35:0.0 36:0.0 37:0.0 38:0.0 39:0.0 40:0.0 41:0.0 42:0.0 43:0.0 44:0.0 45:0.0 46:0.0 47:0.0 48:0.0 49:0.0 50:0.0 51:0.0 52:0.0 53:0.0 54:0.0 55:0.0 56:0.0 57:0.0 58:0.0 59:0.0 60:0.0 61:0.0 62:0.0 63:0.0 64:0.0 65:0.0 66:0.0 67:0.0 68:0.0 69:0.0 70:0.0 71:0.0 72:1.0 73:1.0 74:1.0 75:0.0 76:0.0 77:0.0 78:0.0 79:0.0 80:0.0 81:0.0 82:0.0 83:0.0 84:0.0 85:1.0 86:1.0 87:1.0 88:1.0 89:1.0 90:1.0 91:1.0 92:1.0 93:1.0 94:0.0 95:0.0 96:0.0 97:0.0 98:1.0 99:1.0 100:1.0 101:1.0 102:0.0 103:0.0 104:0.0 105:0.0 106:0.0 107:0.0 108:0.0 109:1.0 110:1.0 111:0.0 112:0.0 113:0.0 114:1.0 115:1.0 116:1.0 117:0.0 118:0.0 119:0.0 120:0.0 121:0.0 122:0.0 123:0.0 124:0.0 125:0.0 126:0.0 127:0.0 128:0.0 129:0.0 130:0.0 131:1.0 132:1.0 133:0.0 134:0.0 135:0.0 136:0.0 137:0.0 138:0.0 139:0.0 140:0.0 141:0.0 142:0.0 143:0.0 144:0.0 145:0.0 146:1.0 147:1.0 148:1.0 149:0.0 150:0.0 151:0.0 152:0.0 153:0.0 154:0.0 155:0.0 156:0.0 157:0.0 158:0.0 159:0.0 160:0.0 161:1.0 162:1.0 163:1.0 164:1.0 165:0.0 166:0.0 167:0.0 168:0.0 169:0.0 170:0.0 171:0.0 172:0.0 173:0.0 174:0.0 175:0.0 176:0.0 177:1.0 178:1.0 179:1.0 180:1.0 181:0.0 182:0.0 183:0.0 184:0.0 185:0.0 186:0.0 187:0.0 188:0.0 189:0.0 190:0.0 191:0.0 192:0.0 193:1.0 194:1.0 195:0.0 196:1.0 197:1.0 198:0.0 199:0.0 200:0.0 201:0.0 202:0.0 203:0.0 204:0.0 205:0.0 206:0.0 207:1.0 208:0.0 209:1.0 210:1.0 211:0.0 212:0.0 213:1.0 214:1.0 215:1.0 216:0.0 217:0.0 218:0.0 219:0.0 220:0.0 221:1.0 222:1.0 223:0.0 224:0.0 225:1.0 226:1.0 227:0.0 228:0.0 229:0.0 230:1.0 231:1.0 232:1.0 233:1.0 234:1.0 235:1.0 236:1.0 237:1.0 238:0.0 239:0.0 240:0.0 241:0.0 242:0.0 243:0.0 244:0.0 245:0.0 246:0.0 247:0.0 248:0.0 249:0.0 250:0.0 251:0.0 252:0.0 253:0.0 254:0.0 255:0.0 256:0.0 
-0.003332477715584514 -0.03515623675892777 0.007485599118183195 0.024976105803900885 0.0 0.009473106775177471 0.018798086778125674 0.024004765211051566 0.007772523063348414 0.014025612700297384 0.003408840950895362 0.0050981852032021815 0.0010555492883300441 0.0030208909572632028 0.0 0.004871255274315533 0.018679427095690558 0.0 0.013920255191916482 0.0017254506900056415 0.0 0.030592760524810244 0.007154778732580983 0.0 0.016255426129315992 0.002635148628991852 1.9210719718341354E-4 0.015108854081693964 0.0058649629397521195 0.007122150747474924 1:0.0 2:0.0 3:0.0 4:0.0 5:0.0 6:0.0 7:0.0 8:0.0 9:0.0 10:0.0 11:0.0 12:0.0 13:0.0 14:0.0 15:0.0 16:0.0 17:0.0 18:0.0 19:0.0 20:0.0 21:0.0 22:0.0 23:0.0 24:0.0 25:0.0 26:0.0 27:0.0 28:0.0 29:0.0 30:0.0 31:0.0 32:0.0 33:0.0 34:0.0 35:0.0 36:0.0 37:0.0 38:0.0 39:0.0 40:0.0 41:0.0 42:0.0 43:0.0 44:0.0 45:0.0 46:0.0 47:0.0 48:0.0 49:0.0 50:0.0 51:0.0 52:0.0 53:0.0 54:0.0 55:0.0 56:0.0 57:0.0 58:0.0 59:0.0 60:0.0 61:0.0 62:0.0 63:0.0 64:0.0 65:0.0 66:0.0 67:0.0 68:0.0 69:0.0 70:0.0 71:1.0 72:1.0 73:1.0 74:0.0 75:0.0 76:0.0 77:0.0 78:0.0 79:0.0 80:0.0 81:0.0 82:0.0 83:0.0 84:0.0 85:0.0 86:0.0 87:1.0 88:1.0 89:0.0 90:0.0 91:0.0 92:0.0 93:0.0 94:0.0 95:0.0 96:0.0 97:0.0 98:0.0 99:0.0 100:0.0 101:0.0 102:1.0 103:1.0 104:1.0 105:0.0 106:0.0 107:0.0 108:0.0 109:0.0 110:0.0 111:0.0 112:0.0 113:0.0 114:0.0 115:0.0 116:0.0 117:1.0 118:1.0 119:1.0 120:1.0 121:1.0 122:0.0 123:0.0 124:0.0 125:1.0 126:1.0 127:0.0 128:0.0 129:0.0 130:0.0 131:0.0 132:0.0 133:1.0 134:1.0 135:1.0 136:0.0 137:0.0 138:0.0 139:0.0 140:0.0 141:0.0 142:1.0 143:0.0 144:0.0 145:0.0 146:0.0 147:0.0 148:1.0 149:1.0 150:1.0 151:1.0 152:0.0 153:0.0 154:0.0 155:0.0 156:0.0 157:0.0 158:0.0 159:0.0 160:0.0 161:0.0 162:0.0 163:1.0 164:1.0 165:1.0 166:1.0 167:1.0 168:0.0 169:0.0 170:0.0 171:0.0 172:0.0 173:0.0 174:0.0 175:0.0 176:0.0 177:0.0 178:1.0 179:1.0 180:1.0 181:0.0 182:1.0 183:1.0 184:0.0 185:0.0 186:0.0 187:0.0 188:0.0 189:0.0 190:0.0 191:0.0 192:0.0 193:0.0 194:0.0 195:0.0 196:0.0 197:0.0 198:1.0 199:1.0 200:0.0 201:0.0 202:0.0 203:0.0 204:0.0 205:0.0 206:0.0 207:0.0 208:0.0 209:0.0 210:0.0 211:0.0 212:0.0 213:0.0 214:1.0 215:1.0 216:1.0 217:0.0 218:0.0 219:0.0 220:0.0 221:0.0 222:0.0 223:0.0 224:0.0 225:0.0 226:1.0 227:0.0 228:0.0 229:0.0 230:0.0 231:1.0 232:1.0 233:1.0 234:0.0 235:0.0 236:0.0 237:0.0 238:0.0 239:1.0 240:0.0 241:0.0 242:0.0 243:0.0 244:0.0 245:0.0 246:0.0 247:0.0 248:0.0 249:1.0 250:1.0 251:1.0 252:1.0 253:1.0 254:0.0 255:0.0 256:0.0 
-0.028913742957314345 -0.043247512252305706 0.01520760666509496 0.037507616150694964 0.024351185497993724 0.025944361419904118 0.0621969183777622 0.04731560787246792 0.04679353933152295 0.02535998743132871 0.006397623814685437 0.04445914287363987 0.04088440694481624 0.0108667546538952 0.02689959744007036 0.00681381942906397 0.036327245650078714 0.019806674913994935 0.03471662031349192 0.028736476370648193 0.04220233968618352 0.017576550224120396 0.034290537429482154 0.01469396355632034 0.06410605186814176 0.01243611192267419 0.03245129700875346 0.027616777633339275 0.02487413803888084 0.0629072957419543 1:0.0 2:0.0 3:0.0 4:0.0 5:0.0 6:0.0 7:0.0 8:0.0 9:0.0 10:0.0 11:0.0 12:0.0 13:0.0 14:0.0 15:0.0 16:0.0 17:0.0 18:0.0 19:0.0 20:0.0 21:0.0 22:0.0 23:0.0 24:0.0 25:0.0 26:0.0 27:0.0 28:0.0 29:0.0 30:0.0 31:0.0 32:0.0 33:0.0 34:0.0 35:0.0 36:1.0 37:1.0 38:0.0 39:0.0 40:0.0 41:0.0 42:0.0 43:0.0 44:0.0 45:0.0 46:0.0 47:0.0 48:0.0 49:0.0 50:0.0 51:0.0 52:0.0 53:1.0 54:1.0 55:1.0 56:0.0 57:0.0 58:0.0 59:0.0 60:0.0 61:0.0 62:0.0 63:0.0 64:0.0 65:0.0 66:0.0 67:0.0 68:0.0 69:0.0 70:1.0 71:1.0 72:0.0 73:0.0 74:0.0 75:0.0 76:0.0 77:0.0 78:0.0 79:0.0 80:0.0 81:0.0 82:0.0 83:0.0 84:0.0 85:0.0 86:1.0 87:1.0 88:1.0 89:1.0 90:1.0 91:1.0 92:1.0 93:1.0 94:1.0 95:0.0 96:0.0 97:0.0 98:0.0 99:0.0 100:0.0 101:0.0 102:1.0 103:1.0 104:1.0 105:1.0 106:0.0 107:0.0 108:0.0 109:0.0 110:1.0 111:1.0 112:0.0 113:0.0 114:0.0 115:1.0 116:1.0 117:1.0 118:1.0 119:1.0 120:0.0 121:0.0 122:0.0 123:0.0 124:0.0 125:0.0 126:0.0 127:0.0 128:0.0 129:0.0 130:0.0 131:1.0 132:1.0 133:1.0 134:1.0 135:1.0 136:0.0 137:0.0 138:0.0 139:0.0 140:0.0 141:0.0 142:0.0 143:0.0 144:0.0 145:0.0 146:0.0 147:0.0 148:0.0 149:0.0 150:1.0 151:1.0 152:0.0 153:0.0 154:0.0 155:0.0 156:0.0 157:0.0 158:0.0 159:0.0 160:0.0 161:0.0 162:0.0 163:0.0 164:0.0 165:0.0 166:1.0 167:1.0 168:0.0 169:0.0 170:0.0 171:0.0 172:0.0 173:0.0 174:0.0 175:0.0 176:0.0 177:0.0 178:0.0 179:0.0 180:0.0 181:0.0 182:0.0 183:1.0 184:1.0 185:1.0 186:0.0 187:0.0 188:0.0 189:0.0 190:0.0 191:0.0 192:0.0 193:0.0 194:1.0 195:0.0 196:0.0 197:0.0 198:0.0 199:1.0 200:1.0 201:1.0 202:1.0 203:0.0 204:0.0 205:0.0 206:0.0 207:0.0 208:0.0 209:0.0 210:1.0 211:0.0 212:0.0 213:0.0 214:0.0 215:0.0 216:0.0 217:0.0 218:1.0 219:1.0 220:0.0 221:0.0 222:0.0 223:0.0 224:0.0 225:0.0 226:0.0 227:0.0 228:0.0 229:0.0 230:0.0 231:0.0 232:0.0 233:0.0 234:0.0 235:0.0 236:0.0 237:0.0 238:0.0 239:0.0 240:0.0 241:0.0 242:0.0 243:0.0 244:0.0 245:0.0 246:0.0 247:0.0 248:0.0 249:0.0 250:0.0 251:0.0 252:0.0 253:0.0 254:0.0 255:0.0 256:0.0 
-0.0 -0.024412384470725704 0.00873540578054671 0.0 0.013688138903411706 9.030488723555625E-4 0.0035933308055995346 0.0186620553708404 0.01028799467405643 0.0024673676534740416 0.007153131529326112 0.0 0.002769336762660316 6.810055605245364E-4 0.0 0.0042814221379728085 7.380131125384905E-4 0.0 0.0 0.0036610329829315693 0.01676466803451327 0.02537559790018237 0.018213913354854016 0.01024433169520494 0.004414566597535384 0.0 0.003538775448598614 0.0 0.01646104360640283 0.0126921880864739 1:0.0 2:0.0 3:0.0 4:0.0 5:0.0 6:0.0 7:0.0 8:0.0 9:0.0 10:0.0 11:0.0 12:0.0 13:0.0 14:0.0 15:0.0 16:0.0 17:0.0 18:0.0 19:0.0 20:0.0 21:0.0 22:0.0 23:0.0 24:0.0 25:0.0 26:0.0 27:0.0 28:0.0 29:0.0 30:0.0 31:0.0 32:0.0 33:0.0 34:0.0 35:0.0 36:0.0 37:0.0 38:0.0 39:0.0 40:0.0 41:0.0 42:0.0 43:0.0 44:0.0 45:0.0 46:0.0 47:0.0 48:0.0 49:0.0 50:0.0 51:0.0 52:1.0 53:0.0 54:0.0 55:0.0 56:0.0 57:0.0 58:0.0 59:0.0 60:0.0 61:0.0 62:0.0 63:0.0 64:0.0 65:0.0 66:0.0 67:0.0 68:1.0 69:0.0 70:0.0 71:0.0 72:0.0 73:0.0 74:0.0 75:0.0 76:0.0 77:0.0 78:0.0 79:0.0 80:0.0 81:0.0 82:0.0 83:0.0 84:0.0 85:0.0 86:0.0 87:0.0 88:0.0 89:0.0 90:0.0 91:0.0 92:0.0 93:0.0 94:0.0 95:0.0 96:0.0 97:0.0 98:0.0 99:0.0 100:1.0 101:0.0 102:0.0 103:0.0 104:0.0 105:1.0 106:1.0 107:1.0 108:1.0 109:1.0 110:0.0 111:0.0 112:0.0 113:0.0 114:0.0 115:0.0 116:0.0 117:0.0 118:0.0 119:1.0 120:1.0 121:1.0 122:0.0 123:0.0 124:0.0 125:0.0 126:1.0 127:0.0 128:0.0 129:0.0 130:0.0 131:1.0 132:0.0 133:0.0 134:0.0 135:1.0 136:1.0 137:0.0 138:0.0 139:0.0 140:0.0 141:0.0 142:0.0 143:0.0 144:0.0 145:0.0 146:0.0 147:1.0 148:0.0 149:0.0 150:1.0 151:1.0 152:1.0 153:0.0 154:0.0 155:0.0 156:0.0 157:0.0 158:0.0 159:0.0 160:0.0 161:0.0 162:0.0 163:0.0 164:0.0 165:1.0 166:1.0 167:1.0 168:1.0 169:0.0 170:0.0 171:0.0 172:0.0 173:0.0 174:0.0 175:0.0 176:0.0 177:0.0 178:1.0 179:0.0 180:1.0 181:1.0 182:1.0 183:1.0 184:1.0 185:0.0 186:0.0 187:0.0 188:0.0 189:0.0 190:0.0 191:0.0 192:0.0 193:0.0 194:1.0 195:1.0 196:1.0 197:0.0 198:0.0 199:1.0 200:1.0 201:0.0 202:0.0 203:0.0 204:0.0 205:0.0 206:0.0 207:1.0 208:0.0 209:0.0 210:0.0 211:1.0 212:0.0 213:0.0 214:0.0 215:0.0 216:1.0 217:1.0 218:0.0 219:0.0 220:0.0 221:0.0 222:0.0 223:1.0 224:0.0 225:0.0 226:0.0 227:0.0 228:0.0 229:0.0 230:0.0 231:0.0 232:1.0 233:1.0 234:1.0 235:0.0 236:0.0 237:0.0 238:0.0 239:1.0 240:0.0 241:0.0 242:0.0 243:0.0 244:0.0 245:0.0 246:0.0 247:0.0 248:0.0 249:0.0 250:1.0 251:1.0 252:1.0 253:1.0 254:1.0 255:0.0 256:0.0 
-0.039807371991514635 -0.011600464867803627 0.005886431021080584 0.017907930869152443 0.019237965479618164 8.043930210195089E-4 0.013351766642139563 0.017666740928061534 0.021646901126585058 0.024952140053545964 0.0025919950167663814 0.02565686936857299 0.0 0.019128698333207295 0.015729951057126806 0.017610973507241418 0.03250835230173939 0.0223128038955432 0.023265405412448027 0.0 0.003028097571225021 0.010787083526640028 0.03844618521111572 0.02379631363409246 0.03665858726703237 0.014400660843243752 0.025524210189309945 0.0130584015364202 0.032508155125199716 0.03647652544233325 1:0.0 2:0.0 3:0.0 4:0.0 5:0.0 6:0.0 7:0.0 8:0.0 9:0.0 10:0.0 11:0.0 12:0.0 13:0.0 14:1.0 15:0.0 16:0.0 17:0.0 18:0.0 19:0.0 20:0.0 21:0.0 22:0.0 23:0.0 24:0.0 25:0.0 26:0.0 27:0.0 28:0.0 29:0.0 30:1.0 31:1.0 32:0.0 33:0.0 34:0.0 35:0.0 36:0.0 37:0.0 38:0.0 39:0.0 40:0.0 41:0.0 42:0.0 43:0.0 44:1.0 45:1.0 46:0.0 47:0.0 48:0.0 49:0.0 50:0.0 51:0.0 52:0.0 53:0.0 54:0.0 55:0.0 56:0.0 57:0.0 58:0.0 59:0.0 60:1.0 61:1.0 62:1.0 63:0.0 64:0.0 65:0.0 66:0.0 67:0.0 68:0.0 69:0.0 70:0.0 71:0.0 72:0.0 73:0.0 74:0.0 75:1.0 76:1.0 77:1.0 78:0.0 79:0.0 80:0.0 81:0.0 82:0.0 83:0.0 84:0.0 85:0.0 86:0.0 87:0.0 88:0.0 89:0.0 90:0.0 91:1.0 92:1.0 93:1.0 94:0.0 95:0.0 96:0.0 97:0.0 98:1.0 99:1.0 100:1.0 101:1.0 102:1.0 103:1.0 104:1.0 105:1.0 106:1.0 107:1.0 108:1.0 109:1.0 110:0.0 111:0.0 112:0.0 113:1.0 114:1.0 115:1.0 116:0.0 117:0.0 118:0.0 119:0.0 120:1.0 121:1.0 122:1.0 123:1.0 124:0.0 125:0.0 126:0.0 127:0.0 128:0.0 129:1.0 130:1.0 131:0.0 132:0.0 133:0.0 134:0.0 135:0.0 136:0.0 137:0.0 138:1.0 139:0.0 140:0.0 141:0.0 142:0.0 143:0.0 144:0.0 145:1.0 146:1.0 147:0.0 148:0.0 149:0.0 150:0.0 151:0.0 152:0.0 153:0.0 154:1.0 155:1.0 156:0.0 157:0.0 158:0.0 159:0.0 160:0.0 161:1.0 162:1.0 163:0.0 164:0.0 165:0.0 166:0.0 167:0.0 168:0.0 169:1.0 170:0.0 171:0.0 172:0.0 173:0.0 174:0.0 175:0.0 176:0.0 177:1.0 178:1.0 179:1.0 180:0.0 181:0.0 182:0.0 183:0.0 184:0.0 185:0.0 186:0.0 187:0.0 188:0.0 189:0.0 190:0.0 191:0.0 192:0.0 193:0.0 194:1.0 195:1.0 196:0.0 197:0.0 198:0.0 199:0.0 200:0.0 201:0.0 202:0.0 203:0.0 204:0.0 205:0.0 206:0.0 207:0.0 208:0.0 209:0.0 210:1.0 211:1.0 212:1.0 213:1.0 214:0.0 215:0.0 216:0.0 217:0.0 218:0.0 219:0.0 220:0.0 221:0.0 222:0.0 223:0.0 224:0.0 225:0.0 226:0.0 227:0.0 228:1.0 229:1.0 230:1.0 231:1.0 232:0.0 233:0.0 234:0.0 235:0.0 236:0.0 237:0.0 238:0.0 239:0.0 240:0.0 241:0.0 242:0.0 243:0.0 244:0.0 245:0.0 246:1.0 247:1.0 248:0.0 249:0.0 250:0.0 251:0.0 252:0.0 253:0.0 254:0.0 255:0.0 256:0.0 
-0.02870958195455093 -0.03950627267208151 0.0178448498717428 0.056690239743242096 0.015277054837274333 0.010851917996609456 0.0411494086071663 0.03554216114875602 0.039885272853625156 0.024841768222768075 0.0019337245637553423 0.015840387207269713 0.04098916143672397 0.029560402169855678 8.363064183751475E-5 0.023865024616657925 0.02656153241938071 0.026239084789574135 0.02108613945981157 0.013076542315366719 0.030039973246286582 0.0032909977549505963 0.042993522842457124 0.027603110002427468 0.04849052515039975 0.021621486800956453 0.04015657070243593 0.014006042807432933 0.0341987744929971 0.025714367747716894 1:0.0 2:0.0 3:0.0 4:0.0 5:0.0 6:0.0 7:0.0 8:0.0 9:0.0 10:0.0 11:0.0 12:0.0 13:0.0 14:0.0 15:0.0 16:0.0 17:0.0 18:0.0 19:0.0 20:0.0 21:0.0 22:0.0 23:0.0 24:0.0 25:0.0 26:0.0 27:0.0 28:0.0 29:0.0 30:0.0 31:0.0 32:0.0 33:0.0 34:0.0 35:0.0 36:0.0 37:0.0 38:0.0 39:0.0 40:0.0 41:0.0 42:0.0 43:0.0 44:0.0 45:0.0 46:0.0 47:0.0 48:0.0 49:0.0 50:0.0 51:0.0 52:0.0 53:0.0 54:0.0 55:0.0 56:0.0 57:0.0 58:0.0 59:0.0 60:0.0 61:0.0 62:0.0 63:0.0 64:0.0 65:0.0 66:0.0 67:1.0 68:0.0 69:0.0 70:0.0 71:0.0 72:0.0 73:0.0 74:0.0 75:0.0 76:0.0 77:0.0 78:0.0 79:0.0 80:0.0 81:0.0 82:0.0 83:0.0 84:0.0 85:0.0 86:0.0 87:0.0 88:0.0 89:0.0 90:0.0 91:0.0 92:0.0 93:0.0 94:0.0 95:0.0 96:0.0 97:0.0 98:0.0 99:1.0 100:0.0 101:0.0 102:0.0 103:0.0 104:0.0 105:0.0 106:0.0 107:0.0 108:0.0 109:0.0 110:0.0 111:0.0 112:0.0 113:0.0 114:1.0 115:0.0 116:0.0 117:0.0 118:1.0 119:1.0 120:0.0 121:1.0 122:1.0 123:1.0 124:1.0 125:1.0 126:1.0 127:0.0 128:0.0 129:0.0 130:0.0 131:0.0 132:0.0 133:1.0 134:1.0 135:0.0 136:1.0 137:1.0 138:1.0 139:0.0 140:1.0 141:1.0 142:1.0 143:1.0 144:0.0 145:0.0 146:0.0 147:0.0 148:1.0 149:1.0 150:0.0 151:1.0 152:1.0 153:0.0 154:0.0 155:0.0 156:0.0 157:0.0 158:0.0 159:0.0 160:0.0 161:0.0 162:0.0 163:0.0 164:1.0 165:1.0 166:1.0 167:1.0 168:0.0 169:0.0 170:0.0 171:0.0 172:0.0 173:0.0 174:0.0 175:0.0 176:0.0 177:1.0 178:0.0 179:0.0 180:1.0 181:1.0 182:1.0 183:0.0 184:0.0 185:0.0 186:0.0 187:0.0 188:0.0 189:0.0 190:0.0 191:0.0 192:0.0 193:0.0 194:0.0 195:1.0 196:1.0 197:1.0 198:1.0 199:0.0 200:0.0 201:0.0 202:0.0 203:0.0 204:0.0 205:0.0 206:0.0 207:0.0 208:0.0 209:0.0 210:1.0 211:1.0 212:0.0 213:1.0 214:1.0 215:1.0 216:0.0 217:0.0 218:0.0 219:0.0 220:0.0 221:0.0 222:0.0 223:0.0 224:0.0 225:0.0 226:0.0 227:0.0 228:0.0 229:0.0 230:1.0 231:1.0 232:1.0 233:0.0 234:0.0 235:0.0 236:0.0 237:0.0 238:0.0 239:0.0 240:0.0 241:1.0 242:0.0 243:0.0 244:0.0 245:0.0 246:0.0 247:0.0 248:1.0 249:1.0 250:0.0 251:0.0 252:0.0 253:0.0 254:0.0 255:0.0 256:0.0 
-0.0 -4.5968014498132736E-4 0.013798792088691789 0.015664490022064267 0.002114375338836212 0.019523964224095563 0.0 0.0 0.0 0.0 0.0017737368210675424 0.0021330503402363266 0.0744967865556746 0.0 0.0 0.0 0.0109963789856925 0.0 0.006273798338479607 0.012541110629578392 0.010118408940916437 0.0 0.015977187857568687 0.0 0.007030208352705563 0.0014372399642868352 0.0 0.0 0.0 0.0212044627149491 1:0.0 2:0.0 3:0.0 4:0.0 5:0.0 6:0.0 7:1.0 8:1.0 9:1.0 10:1.0 11:0.0 12:0.0 13:0.0 14:0.0 15:0.0 16:0.0 17:0.0 18:0.0 19:1.0 20:1.0 21:1.0 22:1.0 23:1.0 24:1.0 25:1.0 26:1.0 27:1.0 28:1.0 29:1.0 30:0.0 31:0.0 32:0.0 33:0.0 34:0.0 35:1.0 36:1.0 37:1.0 38:1.0 39:1.0 40:1.0 41:1.0 42:1.0 43:1.0 44:1.0 45:1.0 46:0.0 47:0.0 48:0.0 49:1.0 50:1.0 51:1.0 52:0.0 53:0.0 54:0.0 55:0.0 56:0.0 57:0.0 58:0.0 59:1.0 60:0.0 61:0.0 62:0.0 63:0.0 64:0.0 65:1.0 66:1.0 67:1.0 68:0.0 69:0.0 70:0.0 71:0.0 72:0.0 73:0.0 74:0.0 75:0.0 76:0.0 77:0.0 78:0.0 79:0.0 80:0.0 81:1.0 82:1.0 83:1.0 84:0.0 85:0.0 86:0.0 87:0.0 88:0.0 89:0.0 90:0.0 91:0.0 92:0.0 93:0.0 94:0.0 95:0.0 96:0.0 97:1.0 98:1.0 99:1.0 100:0.0 101:0.0 102:0.0 103:0.0 104:0.0 105:0.0 106:0.0 107:0.0 108:0.0 109:0.0 110:0.0 111:0.0 112:0.0 113:1.0 114:1.0 115:1.0 116:0.0 117:0.0 118:0.0 119:0.0 120:0.0 121:0.0 122:0.0 123:0.0 124:0.0 125:0.0 126:0.0 127:0.0 128:0.0 129:1.0 130:1.0 131:1.0 132:0.0 133:0.0 134:0.0 135:0.0 136:0.0 137:0.0 138:0.0 139:0.0 140:0.0 141:0.0 142:0.0 143:0.0 144:0.0 145:1.0 146:1.0 147:1.0 148:0.0 149:0.0 150:0.0 151:0.0 152:0.0 153:0.0 154:0.0 155:0.0 156:0.0 157:0.0 158:1.0 159:0.0 160:0.0 161:1.0 162:1.0 163:1.0 164:0.0 165:0.0 166:0.0 167:0.0 168:0.0 169:0.0 170:0.0 171:0.0 172:0.0 173:0.0 174:1.0 175:0.0 176:0.0 177:0.0 178:0.0 179:1.0 180:1.0 181:1.0 182:0.0 183:0.0 184:0.0 185:0.0 186:0.0 187:0.0 188:0.0 189:0.0 190:1.0 191:0.0 192:0.0 193:0.0 194:0.0 195:1.0 196:1.0 197:1.0 198:1.0 199:0.0 200:0.0 201:0.0 202:0.0 203:0.0 204:1.0 205:1.0 206:1.0 207:0.0 208:0.0 209:0.0 210:0.0 211:0.0 212:1.0 213:1.0 214:1.0 215:1.0 216:1.0 217:1.0 218:1.0 219:1.0 220:1.0 221:1.0 222:0.0 223:0.0 224:0.0 225:0.0 226:0.0 227:0.0 228:1.0 229:1.0 230:1.0 231:1.0 232:1.0 233:1.0 234:1.0 235:1.0 236:1.0 237:1.0 238:0.0 239:0.0 240:0.0 241:0.0 242:0.0 243:0.0 244:0.0 245:0.0 246:0.0 247:1.0 248:1.0 249:1.0 250:1.0 251:0.0 252:0.0 253:0.0 254:0.0 255:0.0 256:0.0 
-0.026744530892328366 -0.03377215863274497 0.019785904490783504 0.0404960773581103 0.009281436075709802 0.014530981631209607 0.05683967453345828 0.0 0.009444710988308711 0.03608641634081481 0.0 0.014177370672192179 0.0 0.011002761010781553 0.013865125761633844 0.042908284760341496 0.024119698997591695 0.010251273788478423 0.0 0.007018565886281695 0.034974212158573416 0.027708949843365013 0.0174004098469501 0.0 0.04238246438691274 0.03346732095612341 0.017993361249145003 0.02195115217387898 0.008755007159024716 0.0 1:0.0 2:0.0 3:0.0 4:0.0 5:0.0 6:0.0 7:0.0 8:0.0 9:0.0 10:0.0 11:0.0 12:0.0 13:0.0 14:0.0 15:0.0 16:0.0 17:0.0 18:0.0 19:0.0 20:0.0 21:0.0 22:0.0 23:0.0 24:0.0 25:0.0 26:0.0 27:0.0 28:0.0 29:0.0 30:0.0 31:0.0 32:0.0 33:0.0 34:0.0 35:0.0 36:0.0 37:0.0 38:0.0 39:0.0 40:0.0 41:0.0 42:0.0 43:0.0 44:0.0 45:0.0 46:0.0 47:0.0 48:0.0 49:0.0 50:0.0 51:0.0 52:0.0 53:0.0 54:0.0 55:0.0 56:0.0 57:0.0 58:0.0 59:0.0 60:0.0 61:0.0 62:0.0 63:0.0 64:0.0 65:0.0 66:0.0 67:0.0 68:0.0 69:0.0 70:0.0 71:0.0 72:0.0 73:0.0 74:0.0 75:0.0 76:0.0 77:0.0 78:0.0 79:0.0 80:0.0 81:0.0 82:0.0 83:0.0 84:0.0 85:1.0 86:1.0 87:1.0 88:1.0 89:1.0 90:1.0 91:0.0 92:0.0 93:1.0 94:0.0 95:0.0 96:0.0 97:0.0 98:1.0 99:1.0 100:1.0 101:1.0 102:1.0 103:1.0 104:1.0 105:1.0 106:1.0 107:1.0 108:1.0 109:1.0 110:1.0 111:1.0 112:0.0 113:0.0 114:1.0 115:1.0 116:1.0 117:1.0 118:1.0 119:0.0 120:0.0 121:0.0 122:0.0 123:1.0 124:1.0 125:1.0 126:0.0 127:0.0 128:0.0 129:1.0 130:1.0 131:1.0 132:0.0 133:0.0 134:0.0 135:0.0 136:0.0 137:0.0 138:0.0 139:1.0 140:1.0 141:1.0 142:0.0 143:0.0 144:0.0 145:1.0 146:1.0 147:1.0 148:0.0 149:0.0 150:0.0 151:0.0 152:0.0 153:0.0 154:0.0 155:1.0 156:1.0 157:0.0 158:0.0 159:0.0 160:0.0 161:1.0 162:1.0 163:1.0 164:0.0 165:0.0 166:0.0 167:0.0 168:0.0 169:0.0 170:0.0 171:0.0 172:0.0 173:0.0 174:0.0 175:0.0 176:0.0 177:0.0 178:1.0 179:1.0 180:1.0 181:0.0 182:0.0 183:0.0 184:0.0 185:0.0 186:0.0 187:0.0 188:0.0 189:0.0 190:0.0 191:0.0 192:0.0 193:0.0 194:1.0 195:1.0 196:1.0 197:1.0 198:1.0 199:0.0 200:0.0 201:0.0 202:0.0 203:0.0 204:0.0 205:0.0 206:0.0 207:0.0 208:0.0 209:0.0 210:0.0 211:0.0 212:1.0 213:1.0 214:1.0 215:1.0 216:0.0 217:0.0 218:0.0 219:0.0 220:0.0 221:0.0 222:0.0 223:0.0 224:0.0 225:0.0 226:0.0 227:0.0 228:0.0 229:0.0 230:0.0 231:1.0 232:1.0 233:1.0 234:0.0 235:0.0 236:0.0 237:0.0 238:0.0 239:0.0 240:0.0 241:0.0 242:0.0 243:0.0 244:0.0 245:0.0 246:0.0 247:0.0 248:0.0 249:0.0 250:0.0 251:0.0 252:0.0 253:0.0 254:0.0 255:0.0 256:0.0 
-0.0 -0.007027825484705255 0.006085893616749061 0.013008169889431272 0.0 0.0 0.0 0.0 0.0 0.0 0.001976508801079796 0.0 0.010925636728378093 0.0 0.0 0.0 0.0 0.0 0.0 0.0 0.011932216954678318 0.0 0.0 0.0 0.0 0.0 0.0 0.0 0.0 0.0 1:0.0 2:0.0 3:0.0 4:0.0 5:1.0 6:1.0 7:1.0 8:1.0 9:1.0 10:1.0 11:1.0 12:1.0 13:0.0 14:0.0 15:0.0 16:0.0 17:0.0 18:0.0 19:0.0 20:0.0 21:1.0 22:1.0 23:1.0 24:1.0 25:1.0 26:1.0 27:1.0 28:1.0 29:0.0 30:0.0 31:0.0 32:0.0 33:0.0 34:0.0 35:1.0 36:1.0 37:1.0 38:0.0 39:0.0 40:0.0 41:0.0 42:1.0 43:1.0 44:1.0 45:1.0 46:1.0 47:0.0 48:0.0 49:1.0 50:1.0 51:1.0 52:1.0 53:0.0 54:0.0 55:0.0 56:0.0 57:0.0 58:0.0 59:0.0 60:0.0 61:0.0 62:0.0 63:0.0 64:0.0 65:1.0 66:1.0 67:1.0 68:1.0 69:0.0 70:0.0 71:0.0 72:0.0 73:0.0 74:0.0 75:0.0 76:0.0 77:0.0 78:0.0 79:0.0 80:0.0 81:1.0 82:1.0 83:1.0 84:1.0 85:0.0 86:0.0 87:0.0 88:0.0 89:0.0 90:0.0 91:0.0 92:0.0 93:0.0 94:0.0 95:0.0 96:0.0 97:1.0 98:1.0 99:1.0 100:1.0 101:0.0 102:0.0 103:0.0 104:0.0 105:0.0 106:0.0 107:0.0 108:0.0 109:0.0 110:0.0 111:0.0 112:0.0 113:1.0 114:1.0 115:1.0 116:1.0 117:0.0 118:0.0 119:0.0 120:0.0 121:0.0 122:0.0 123:0.0 124:0.0 125:0.0 126:0.0 127:0.0 128:0.0 129:1.0 130:1.0 131:1.0 132:1.0 133:1.0 134:0.0 135:0.0 136:0.0 137:0.0 138:0.0 139:0.0 140:0.0 141:0.0 142:0.0 143:0.0 144:0.0 145:1.0 146:1.0 147:1.0 148:1.0 149:1.0 150:0.0 151:0.0 152:0.0 153:0.0 154:0.0 155:0.0 156:0.0 157:0.0 158:0.0 159:0.0 160:0.0 161:0.0 162:0.0 163:1.0 164:1.0 165:1.0 166:0.0 167:0.0 168:0.0 169:0.0 170:0.0 171:0.0 172:0.0 173:1.0 174:1.0 175:0.0 176:0.0 177:0.0 178:0.0 179:1.0 180:1.0 181:1.0 182:1.0 183:1.0 184:0.0 185:0.0 186:0.0 187:0.0 188:0.0 189:1.0 190:1.0 191:0.0 192:0.0 193:0.0 194:0.0 195:1.0 196:1.0 197:1.0 198:1.0 199:1.0 200:0.0 201:0.0 202:0.0 203:0.0 204:0.0 205:1.0 206:1.0 207:0.0 208:0.0 209:0.0 210:0.0 211:0.0 212:0.0 213:1.0 214:1.0 215:1.0 216:1.0 217:1.0 218:0.0 219:0.0 220:1.0 221:1.0 222:1.0 223:0.0 224:0.0 225:0.0 226:0.0 227:0.0 228:0.0 229:0.0 230:1.0 231:1.0 232:1.0 233:1.0 234:1.0 235:1.0 236:0.0 237:0.0 238:0.0 239:0.0 240:0.0 241:0.0 242:0.0 243:0.0 244:0.0 245:0.0 246:1.0 247:1.0 248:1.0 249:1.0 250:1.0 251:1.0 252:0.0 253:0.0 254:0.0 255:0.0 256:0.0 
-0.0024524133390245386 -0.014499759488895848 0.0 0.0 0.0 0.009773955097028619 0.0 0.006737700429986144 8.743749467319719E-4 0.0 5.863130337120684E-4 0.0 0.005900037689531791 0.0 0.0 0.002848933176491457 0.003963039285070493 0.007215190615698799 0.007318497822235274 0.0 0.0 0.03321725630798882 0.0 0.0037351934168677204 0.0 0.0 0.01900334553165652 1.0865578326906056E-4 0.016472976968255105 0.0038218172988961946 1:0.0 2:0.0 3:0.0 4:0.0 5:0.0 6:0.0 7:0.0 8:0.0 9:0.0 10:0.0 11:0.0 12:0.0 13:0.0 14:0.0 15:0.0 16:0.0 17:0.0 18:0.0 19:0.0 20:0.0 21:0.0 22:0.0 23:0.0 24:0.0 25:0.0 26:0.0 27:0.0 28:0.0 29:0.0 30:0.0 31:0.0 32:0.0 33:0.0 34:0.0 35:0.0 36:0.0 37:0.0 38:0.0 39:0.0 40:0.0 41:0.0 42:0.0 43:0.0 44:0.0 45:0.0 46:0.0 47:0.0 48:0.0 49:0.0 50:0.0 51:0.0 52:0.0 53:0.0 54:0.0 55:0.0 56:0.0 57:0.0 58:0.0 59:0.0 60:0.0 61:0.0 62:0.0 63:0.0 64:0.0 65:0.0 66:0.0 67:0.0 68:0.0 69:0.0 70:0.0 71:0.0 72:0.0 73:1.0 74:0.0 75:0.0 76:0.0 77:0.0 78:0.0 79:0.0 80:0.0 81:0.0 82:0.0 83:0.0 84:0.0 85:0.0 86:0.0 87:0.0 88:1.0 89:1.0 90:1.0 91:1.0 92:1.0 93:0.0 94:0.0 95:0.0 96:0.0 97:0.0 98:0.0 99:0.0 100:0.0 101:0.0 102:0.0 103:1.0 104:1.0 105:0.0 106:0.0 107:0.0 108:1.0 109:1.0 110:0.0 111:0.0 112:0.0 113:0.0 114:0.0 115:0.0 116:0.0 117:0.0 118:1.0 119:1.0 120:1.0 121:0.0 122:0.0 123:0.0 124:0.0 125:0.0 126:0.0 127:0.0 128:0.0 129:0.0 130:0.0 131:0.0 132:0.0 133:0.0 134:1.0 135:1.0 136:1.0 137:0.0 138:0.0 139:0.0 140:0.0 141:0.0 142:0.0 143:0.0 144:0.0 145:0.0 146:0.0 147:0.0 148:0.0 149:1.0 150:1.0 151:1.0 152:0.0 153:0.0 154:0.0 155:0.0 156:0.0 157:0.0 158:0.0 159:0.0 160:0.0 161:0.0 162:0.0 163:0.0 164:0.0 165:1.0 166:1.0 167:1.0 168:0.0 169:0.0 170:0.0 171:0.0 172:0.0 173:0.0 174:0.0 175:0.0 176:0.0 177:0.0 178:0.0 179:1.0 180:1.0 181:1.0 182:1.0 183:1.0 184:1.0 185:0.0 186:0.0 187:0.0 188:0.0 189:0.0 190:0.0 191:1.0 192:0.0 193:1.0 194:1.0 195:1.0 196:1.0 197:1.0 198:0.0 199:1.0 200:1.0 201:0.0 202:0.0 203:0.0 204:0.0 205:0.0 206:0.0 207:1.0 208:0.0 209:1.0 210:1.0 211:1.0 212:0.0 213:0.0 214:0.0 215:1.0 216:1.0 217:0.0 218:0.0 219:0.0 220:0.0 221:0.0 222:0.0 223:1.0 224:0.0 225:0.0 226:0.0 227:0.0 228:0.0 229:0.0 230:0.0 231:0.0 232:0.0 233:1.0 234:1.0 235:1.0 236:1.0 237:1.0 238:1.0 239:0.0 240:0.0 241:0.0 242:0.0 243:0.0 244:0.0 245:0.0 246:0.0 247:0.0 248:0.0 249:0.0 250:1.0 251:1.0 252:1.0 253:0.0 254:0.0 255:0.0 256:0.0 
-0.003760841492035367 -0.0 0.013632320553935746 0.008769257861493285 0.008778606570957918 0.012906001474553544 0.014697219752104739 0.0 0.0016884231640109536 0.0 0.0 0.0 0.012493581633533785 0.0 0.00858175309505788 0.0 0.0 0.0 0.029751481593815333 0.0 0.0 0.0 0.0 0.02187247721401848 0.008961511764729766 0.0 0.010597772115330834 0.0 0.016785746043752187 0.03196310502349987 1:0.0 2:0.0 3:0.0 4:0.0 5:1.0 6:1.0 7:1.0 8:1.0 9:1.0 10:1.0 11:1.0 12:0.0 13:0.0 14:0.0 15:0.0 16:0.0 17:0.0 18:0.0 19:1.0 20:1.0 21:1.0 22:1.0 23:1.0 24:1.0 25:1.0 26:1.0 27:1.0 28:1.0 29:0.0 30:0.0 31:0.0 32:0.0 33:0.0 34:1.0 35:1.0 36:1.0 37:0.0 38:0.0 39:0.0 40:0.0 41:0.0 42:0.0 43:0.0 44:1.0 45:1.0 46:1.0 47:0.0 48:0.0 49:1.0 50:1.0 51:1.0 52:1.0 53:0.0 54:0.0 55:0.0 56:0.0 57:0.0 58:0.0 59:0.0 60:1.0 61:0.0 62:0.0 63:0.0 64:0.0 65:1.0 66:1.0 67:0.0 68:0.0 69:0.0 70:0.0 71:0.0 72:0.0 73:0.0 74:0.0 75:0.0 76:0.0 77:0.0 78:0.0 79:0.0 80:0.0 81:1.0 82:1.0 83:0.0 84:0.0 85:0.0 86:0.0 87:0.0 88:0.0 89:0.0 90:0.0 91:0.0 92:0.0 93:0.0 94:0.0 95:0.0 96:0.0 97:1.0 98:1.0 99:0.0 100:0.0 101:0.0 102:0.0 103:0.0 104:0.0 105:0.0 106:0.0 107:0.0 108:0.0 109:0.0 110:0.0 111:0.0 112:0.0 113:1.0 114:1.0 115:1.0 116:1.0 117:0.0 118:0.0 119:0.0 120:0.0 121:0.0 122:0.0 123:0.0 124:0.0 125:0.0 126:0.0 127:0.0 128:0.0 129:0.0 130:0.0 131:1.0 132:1.0 133:1.0 134:1.0 135:1.0 136:0.0 137:0.0 138:0.0 139:0.0 140:0.0 141:0.0 142:0.0 143:0.0 144:0.0 145:0.0 146:0.0 147:0.0 148:0.0 149:0.0 150:1.0 151:1.0 152:0.0 153:0.0 154:0.0 155:0.0 156:0.0 157:0.0 158:0.0 159:0.0 160:0.0 161:0.0 162:0.0 163:0.0 164:0.0 165:0.0 166:0.0 167:0.0 168:0.0 169:0.0 170:0.0 171:0.0 172:0.0 173:0.0 174:0.0 175:0.0 176:0.0 177:0.0 178:0.0 179:0.0 180:0.0 181:0.0 182:0.0 183:0.0 184:0.0 185:0.0 186:0.0 187:0.0 188:0.0 189:0.0 190:0.0 191:0.0 192:0.0 193:0.0 194:0.0 195:0.0 196:0.0 197:0.0 198:0.0 199:0.0 200:0.0 201:0.0 202:0.0 203:0.0 204:0.0 205:0.0 206:0.0 207:0.0 208:0.0 209:0.0 210:0.0 211:0.0 212:0.0 213:0.0 214:0.0 215:0.0 216:0.0 217:0.0 218:0.0 219:0.0 220:0.0 221:0.0 222:0.0 223:0.0 224:0.0 225:0.0 226:0.0 227:0.0 228:0.0 229:0.0 230:0.0 231:0.0 232:0.0 233:0.0 234:0.0 235:0.0 236:0.0 237:0.0 238:0.0 239:0.0 240:0.0 241:0.0 242:0.0 243:0.0 244:0.0 245:0.0 246:0.0 247:0.0 248:0.0 249:0.0 250:0.0 251:0.0 252:0.0 253:0.0 254:0.0 255:0.0 256:0.0 
-0.018183955995501995 -0.04329550179518146 0.011088377605021203 0.03596943692050985 0.010985514321863996 0.020900505770266954 0.04287440040388416 0.043760847832924686 0.0071954339382585275 0.022535198371930812 0.010587145453614437 0.011066989373506841 0.029059406984103614 0.0 0.004543681575334358 0.02001400767566885 0.007507708858704217 0.011459760300495949 0.006970501235486952 0.0 0.041748265979247856 0.016191978481020334 0.052215172849558025 0.004435775177196948 0.04780592013050532 0.012311876859974513 0.014428227336175662 0.0029275881888223584 0.0 0.03876907111042938 1:0.0 2:0.0 3:0.0 4:0.0 5:0.0 6:0.0 7:0.0 8:0.0 9:0.0 10:0.0 11:0.0 12:0.0 13:0.0 14:0.0 15:0.0 16:0.0 17:0.0 18:0.0 19:1.0 20:0.0 21:0.0 22:0.0 23:0.0 24:0.0 25:0.0 26:0.0 27:0.0 28:0.0 29:0.0 30:0.0 31:0.0 32:0.0 33:0.0 34:0.0 35:0.0 36:0.0 37:0.0 38:0.0 39:0.0 40:0.0 41:0.0 42:0.0 43:0.0 44:0.0 45:0.0 46:0.0 47:0.0 48:0.0 49:0.0 50:0.0 51:0.0 52:0.0 53:0.0 54:0.0 55:0.0 56:0.0 57:0.0 58:0.0 59:0.0 60:0.0 61:0.0 62:0.0 63:0.0 64:0.0 65:0.0 66:0.0 67:0.0 68:0.0 69:0.0 70:0.0 71:1.0 72:1.0 73:1.0 74:0.0 75:0.0 76:0.0 77:1.0 78:0.0 79:0.0 80:0.0 81:0.0 82:1.0 83:0.0 84:0.0 85:0.0 86:1.0 87:1.0 88:1.0 89:0.0 90:0.0 91:0.0 92:0.0 93:0.0 94:0.0 95:0.0 96:0.0 97:0.0 98:0.0 99:0.0 100:0.0 101:1.0 102:1.0 103:1.0 104:0.0 105:0.0 106:0.0 107:0.0 108:0.0 109:0.0 110:0.0 111:0.0 112:0.0 113:0.0 114:0.0 115:0.0 116:0.0 117:1.0 118:1.0 119:1.0 120:0.0 121:0.0 122:0.0 123:0.0 124:0.0 125:0.0 126:0.0 127:0.0 128:0.0 129:0.0 130:0.0 131:1.0 132:1.0 133:0.0 134:1.0 135:1.0 136:0.0 137:0.0 138:0.0 139:0.0 140:0.0 141:0.0 142:0.0 143:0.0 144:0.0 145:0.0 146:0.0 147:1.0 148:1.0 149:0.0 150:1.0 151:1.0 152:0.0 153:0.0 154:0.0 155:0.0 156:0.0 157:0.0 158:0.0 159:0.0 160:0.0 161:0.0 162:0.0 163:0.0 164:0.0 165:0.0 166:1.0 167:1.0 168:0.0 169:0.0 170:0.0 171:0.0 172:0.0 173:0.0 174:0.0 175:0.0 176:0.0 177:0.0 178:0.0 179:0.0 180:0.0 181:0.0 182:1.0 183:1.0 184:1.0 185:0.0 186:0.0 187:0.0 188:0.0 189:0.0 190:0.0 191:1.0 192:0.0 193:0.0 194:0.0 195:0.0 196:0.0 197:0.0 198:0.0 199:1.0 200:1.0 201:1.0 202:0.0 203:0.0 204:0.0 205:0.0 206:0.0 207:1.0 208:0.0 209:0.0 210:0.0 211:0.0 212:0.0 213:0.0 214:0.0 215:0.0 216:1.0 217:1.0 218:1.0 219:0.0 220:0.0 221:0.0 222:1.0 223:1.0 224:0.0 225:0.0 226:0.0 227:0.0 228:0.0 229:0.0 230:0.0 231:0.0 232:0.0 233:1.0 234:1.0 235:1.0 236:1.0 237:1.0 238:1.0 239:0.0 240:0.0 241:0.0 242:0.0 243:0.0 244:0.0 245:0.0 246:0.0 247:0.0 248:0.0 249:0.0 250:0.0 251:1.0 252:1.0 253:0.0 254:0.0 255:0.0 256:0.0 
-0.03807055235526792 -0.022827205571192322 0.022101199090833183 0.037076934123109646 0.01189345193643124 0.038651746357454275 0.0042939451836275936 0.03117961735704986 0.01077614901686796 0.013477319790507952 0.0 0.017418492692530242 0.029960444540533288 0.03247216313158057 0.01570481705082711 0.03232883462278679 0.026086848000281358 0.03269609995918783 0.02685537936774719 0.022513873907550185 0.02003365578654878 0.04599980266254135 0.010713835803271206 0.005291896710909647 0.02433284381358109 0.02099619059250637 0.02817679201694949 0.018591470016996677 0.009331707307457703 0.0388303316804789 1:0.0 2:0.0 3:0.0 4:0.0 5:0.0 6:0.0 7:1.0 8:1.0 9:1.0 10:1.0 11:0.0 12:0.0 13:0.0 14:0.0 15:0.0 16:0.0 17:0.0 18:0.0 19:0.0 20:0.0 21:0.0 22:0.0 23:0.0 24:0.0 25:0.0 26:1.0 27:1.0 28:1.0 29:1.0 30:1.0 31:0.0 32:0.0 33:0.0 34:0.0 35:0.0 36:0.0 37:0.0 38:0.0 39:0.0 40:0.0 41:0.0 42:0.0 43:1.0 44:1.0 45:1.0 46:1.0 47:0.0 48:0.0 49:0.0 50:0.0 51:0.0 52:0.0 53:0.0 54:1.0 55:1.0 56:1.0 57:1.0 58:1.0 59:0.0 60:0.0 61:0.0 62:0.0 63:0.0 64:0.0 65:0.0 66:0.0 67:1.0 68:1.0 69:1.0 70:1.0 71:1.0 72:1.0 73:0.0 74:0.0 75:0.0 76:0.0 77:0.0 78:0.0 79:0.0 80:0.0 81:1.0 82:1.0 83:1.0 84:0.0 85:0.0 86:0.0 87:0.0 88:0.0 89:0.0 90:0.0 91:0.0 92:0.0 93:0.0 94:0.0 95:0.0 96:0.0 97:0.0 98:0.0 99:0.0 100:0.0 101:0.0 102:0.0 103:0.0 104:0.0 105:0.0 106:0.0 107:0.0 108:0.0 109:0.0 110:0.0 111:0.0 112:0.0 113:0.0 114:0.0 115:0.0 116:0.0 117:0.0 118:0.0 119:0.0 120:0.0 121:0.0 122:0.0 123:0.0 124:0.0 125:0.0 126:0.0 127:0.0 128:0.0 129:0.0 130:0.0 131:0.0 132:0.0 133:0.0 134:0.0 135:0.0 136:0.0 137:0.0 138:0.0 139:0.0 140:0.0 141:0.0 142:0.0 143:0.0 144:0.0 145:0.0 146:0.0 147:0.0 148:0.0 149:0.0 150:0.0 151:0.0 152:1.0 153:1.0 154:1.0 155:1.0 156:1.0 157:1.0 158:0.0 159:0.0 160:0.0 161:0.0 162:0.0 163:0.0 164:0.0 165:0.0 166:1.0 167:1.0 168:1.0 169:0.0 170:0.0 171:0.0 172:1.0 173:1.0 174:1.0 175:0.0 176:0.0 177:0.0 178:0.0 179:0.0 180:0.0 181:0.0 182:1.0 183:1.0 184:1.0 185:0.0 186:0.0 187:0.0 188:0.0 189:0.0 190:0.0 191:0.0 192:0.0 193:0.0 194:0.0 195:0.0 196:0.0 197:0.0 198:0.0 199:1.0 200:1.0 201:0.0 202:0.0 203:0.0 204:0.0 205:0.0 206:0.0 207:0.0 208:0.0 209:0.0 210:0.0 211:0.0 212:0.0 213:0.0 214:0.0 215:1.0 216:1.0 217:1.0 218:0.0 219:0.0 220:0.0 221:0.0 222:0.0 223:1.0 224:0.0 225:0.0 226:0.0 227:0.0 228:0.0 229:0.0 230:0.0 231:0.0 232:1.0 233:1.0 234:0.0 235:0.0 236:0.0 237:0.0 238:1.0 239:1.0 240:0.0 241:0.0 242:0.0 243:0.0 244:0.0 245:0.0 246:0.0 247:0.0 248:0.0 249:0.0 250:1.0 251:1.0 252:0.0 253:0.0 254:0.0 255:0.0 256:0.0 
-0.03821027856813326 -0.03270815506325067 0.0 0.019521785532180147 0.007537479887452839 0.02122595890729917 0.05418413946289983 0.04453187990905344 0.023201966670044833 0.01574171765814588 0.0 0.02715171611446197 0.06986506371420208 0.017694472147744937 0.013501811658316251 0.025009016561503446 0.07671774502292385 0.014114703459281789 0.0022292190697304455 0.020320957708600935 0.042804882378614635 0.023498039806210964 0.04988204896129386 0.006983127216557963 0.03455588998082608 0.051183760366863285 0.01747468587102395 0.048624822955531284 0.02730136101243567 2.4280491313685205E-4 1:0.0 2:0.0 3:0.0 4:0.0 5:1.0 6:1.0 7:1.0 8:1.0 9:1.0 10:1.0 11:1.0 12:1.0 13:0.0 14:0.0 15:0.0 16:0.0 17:0.0 18:0.0 19:0.0 20:1.0 21:1.0 22:1.0 23:1.0 24:1.0 25:1.0 26:1.0 27:1.0 28:1.0 29:1.0 30:0.0 31:0.0 32:0.0 33:0.0 34:1.0 35:1.0 36:1.0 37:1.0 38:0.0 39:0.0 40:0.0 41:0.0 42:0.0 43:0.0 44:1.0 45:1.0 46:0.0 47:0.0 48:0.0 49:0.0 50:1.0 51:1.0 52:1.0 53:0.0 54:0.0 55:0.0 56:0.0 57:0.0 58:0.0 59:0.0 60:0.0 61:1.0 62:1.0 63:1.0 64:0.0 65:1.0 66:1.0 67:1.0 68:1.0 69:0.0 70:0.0 71:0.0 72:0.0 73:0.0 74:0.0 75:0.0 76:0.0 77:1.0 78:0.0 79:0.0 80:0.0 81:1.0 82:1.0 83:1.0 84:0.0 85:0.0 86:0.0 87:0.0 88:0.0 89:0.0 90:0.0 91:0.0 92:0.0 93:0.0 94:0.0 95:0.0 96:0.0 97:1.0 98:1.0 99:1.0 100:0.0 101:0.0 102:0.0 103:0.0 104:0.0 105:1.0 106:1.0 107:1.0 108:0.0 109:0.0 110:0.0 111:0.0 112:0.0 113:1.0 114:1.0 115:1.0 116:0.0 117:0.0 118:0.0 119:0.0 120:0.0 121:1.0 122:1.0 123:1.0 124:1.0 125:0.0 126:0.0 127:0.0 128:0.0 129:1.0 130:1.0 131:1.0 132:1.0 133:0.0 134:0.0 135:0.0 136:0.0 137:0.0 138:0.0 139:0.0 140:1.0 141:1.0 142:0.0 143:0.0 144:0.0 145:0.0 146:1.0 147:1.0 148:1.0 149:1.0 150:1.0 151:1.0 152:1.0 153:1.0 154:1.0 155:1.0 156:1.0 157:1.0 158:1.0 159:1.0 160:0.0 161:0.0 162:0.0 163:0.0 164:1.0 165:1.0 166:1.0 167:1.0 168:1.0 169:1.0 170:1.0 171:1.0 172:0.0 173:1.0 174:0.0 175:0.0 176:0.0 177:0.0 178:0.0 179:0.0 180:0.0 181:0.0 182:1.0 183:1.0 184:1.0 185:0.0 186:0.0 187:0.0 188:0.0 189:0.0 190:0.0 191:0.0 192:0.0 193:0.0 194:0.0 195:0.0 196:0.0 197:0.0 198:0.0 199:0.0 200:0.0 201:0.0 202:0.0 203:0.0 204:0.0 205:0.0 206:0.0 207:0.0 208:0.0 209:0.0 210:0.0 211:0.0 212:0.0 213:0.0 214:0.0 215:0.0 216:0.0 217:0.0 218:0.0 219:0.0 220:0.0 221:0.0 222:0.0 223:0.0 224:0.0 225:0.0 226:0.0 227:0.0 228:0.0 229:0.0 230:0.0 231:0.0 232:0.0 233:0.0 234:0.0 235:0.0 236:0.0 237:0.0 238:0.0 239:0.0 240:0.0 241:0.0 242:0.0 243:0.0 244:0.0 245:0.0 246:0.0 247:0.0 248:0.0 249:0.0 250:0.0 251:0.0 252:0.0 253:0.0 254:0.0 255:0.0 256:0.0 
-0.016914113064470566 -0.0 0.0032167507486935685 0.01980740406927073 0.006213294120588003 0.008569592591788765 0.0 0.028285806057737655 0.001216455027604414 0.0 0.0 0.013214967641013963 0.0 0.0 0.013557544020681125 0.007222531879423513 0.022073510828777385 0.014697485317158684 0.02154184160969416 0.022642264521208023 0.0 0.019306098379113096 0.013296377890913865 0.008633351921117471 0.0 0.007848081583716627 0.004590558354036148 0.0027942683276211857 0.0 0.016742211100533123 1:0.0 2:0.0 3:0.0 4:0.0 5:0.0 6:0.0 7:0.0 8:0.0 9:0.0 10:0.0 11:0.0 12:0.0 13:0.0 14:0.0 15:0.0 16:0.0 17:0.0 18:0.0 19:0.0 20:0.0 21:0.0 22:0.0 23:0.0 24:0.0 25:0.0 26:0.0 27:0.0 28:0.0 29:0.0 30:0.0 31:0.0 32:0.0 33:0.0 34:0.0 35:0.0 36:0.0 37:0.0 38:0.0 39:0.0 40:0.0 41:0.0 42:0.0 43:1.0 44:1.0 45:1.0 46:1.0 47:1.0 48:0.0 49:0.0 50:0.0 51:0.0 52:0.0 53:0.0 54:0.0 55:0.0 56:0.0 57:0.0 58:0.0 59:1.0 60:1.0 61:1.0 62:0.0 63:0.0 64:0.0 65:0.0 66:0.0 67:0.0 68:0.0 69:0.0 70:0.0 71:0.0 72:0.0 73:0.0 74:0.0 75:0.0 76:0.0 77:0.0 78:0.0 79:0.0 80:0.0 81:0.0 82:0.0 83:0.0 84:1.0 85:1.0 86:1.0 87:1.0 88:1.0 89:0.0 90:0.0 91:0.0 92:0.0 93:0.0 94:0.0 95:0.0 96:0.0 97:1.0 98:1.0 99:1.0 100:0.0 101:0.0 102:0.0 103:0.0 104:1.0 105:1.0 106:1.0 107:1.0 108:0.0 109:0.0 110:0.0 111:0.0 112:0.0 113:1.0 114:1.0 115:0.0 116:0.0 117:0.0 118:0.0 119:0.0 120:0.0 121:1.0 122:1.0 123:0.0 124:0.0 125:0.0 126:0.0 127:0.0 128:0.0 129:1.0 130:1.0 131:0.0 132:0.0 133:0.0 134:0.0 135:0.0 136:0.0 137:1.0 138:1.0 139:0.0 140:0.0 141:0.0 142:0.0 143:0.0 144:0.0 145:1.0 146:1.0 147:0.0 148:0.0 149:0.0 150:0.0 151:0.0 152:0.0 153:1.0 154:1.0 155:0.0 156:0.0 157:0.0 158:0.0 159:0.0 160:0.0 161:1.0 162:1.0 163:1.0 164:0.0 165:0.0 166:0.0 167:0.0 168:0.0 169:0.0 170:0.0 171:0.0 172:0.0 173:0.0 174:0.0 175:0.0 176:0.0 177:0.0 178:1.0 179:1.0 180:0.0 181:0.0 182:0.0 183:0.0 184:0.0 185:0.0 186:0.0 187:0.0 188:0.0 189:0.0 190:0.0 191:0.0 192:0.0 193:0.0 194:1.0 195:1.0 196:1.0 197:1.0 198:0.0 199:0.0 200:0.0 201:0.0 202:0.0 203:0.0 204:0.0 205:0.0 206:0.0 207:0.0 208:0.0 209:0.0 210:0.0 211:1.0 212:1.0 213:1.0 214:1.0 215:0.0 216:0.0 217:0.0 218:0.0 219:0.0 220:0.0 221:0.0 222:0.0 223:0.0 224:0.0 225:0.0 226:0.0 227:0.0 228:0.0 229:0.0 230:1.0 231:1.0 232:0.0 233:0.0 234:0.0 235:0.0 236:0.0 237:0.0 238:0.0 239:0.0 240:0.0 241:0.0 242:0.0 243:0.0 244:0.0 245:0.0 246:0.0 247:0.0 248:0.0 249:0.0 250:0.0 251:0.0 252:0.0 253:0.0 254:0.0 255:0.0 256:0.0 
